tree
version=v4
num_class=1
num_tree_per_iteration=1
label_index=0
max_feature_idx=11
objective=regression
feature_names=Column_0 Column_1 Column_2 Column_3 Column_4 Column_5 Column_6 Column_7 Column_8 Column_9 Column_10 Column_11
feature_infos=[-1:0.91666666666666663] [-1.5:1.5625] [-1.6839180270927405:1.7895102466134076] [-2.0999999999999996:1.2333333333333332] [-1.3002680965147455:4.4014745308311003] [-1:0] [-1:0.83333333333333337] [0:1] [-0.75:0.75] [-1:0] [0:3] [0:3]
tree_sizes=2832 2888 2873 2834 2871 2863 2846 2816 2824 2820 2793 2834 2795 2800 2799 2815 2757 2794 2769 2792 2778 2782 2786 2764 2743 2770 2758 2754 2770 2759 2745 2798 2772 2771 2774 2787 2744 2774 2751 2746 2761 2796 2788 2782 2776 2777 2806 2793 2789 2785 2724 2792 2782 2771 2779 2797 2775 2781 2733 2752 2786 2768 2776 2757 2782 2805 2749 2773 2761 2783 2799 2756 2793 2777 2773 2767 2771 2766 2773 2792 2729 2786 2734 2748 2758 2746 2759 2698 2751 2725 2784 2782 2767 2735 2777 2731 2788 2744 2749 2748

Tree=0
num_leaves=31
num_cat=0
split_feature=0 1 5 0 0 5 0 0 10 0 0 0 9 9 0 0 10 0 0 9 0 0 0 1 11 0 9 0 9 0
split_gain=1.32938e+08 4.45461e+07 2.34471e+07 1.59261e+07 1.54806e+07 1.12276e+07 6.99014e+06 6.35331e+06 5.67108e+06 5.15793e+06 7.36211e+06 4.99476e+06 5.11074e+06 3.53499e+06 1.02046e+07 9.66461e+06 2.90708e+06 1.95962e+06 1.95338e+06 1.76025e+06 4.94429e+06 3.81936e+06 1.63556e+06 1.59462e+06 1.42067e+06 1.62915e+06 1.3927e+06 1.18828e+06 6.2276e+06 1.76072e+06
threshold=-0.45833333333333331 -1.0000000180025095e-35 -1.0000000180025095e-35 0.70833333333333337 0.29166666666666669 -1.0000000180025095e-35 0.62500000000000011 0.54166666666666685 1.5000000000000002 0.70833333333333337 0.29166666666666669 0.37500000000000006 -1.0000000180025095e-35 -1.0000000180025095e-35 -0.29166666666666657 -0.20833333333333329 2.5000000000000004 -0.37499999999999994 0.62500000000000011 -1.0000000180025095e-35 -0.29166666666666657 -0.20833333333333329 0.70833333333333337 -0.53125 2.5000000000000004 0.37500000000000006 -1.0000000180025095e-35 -0.29166666666666657 -1.0000000180025095e-35 -0.37499999999999994
decision_type=2 2 2 2 2 2 2 2 2 2 2 2 2 2 2 2 2 2 2 2 2 2 2 2 2 2 2 2 2 2
left_child=-1 5 9 4 13 16 8 11 23 10 19 -6 -13 15 17 -4 -2 -15 -12 21 -21 -3 -18 -7 25 27 -27 28 -10 -30
right_child=1 2 3 -5 7 6 -8 -9 24 -11 18 12 -14 14 -16 -17 22 -19 -20 20 -22 -23 -24 -25 -26 26 -28 -29 29 -31
leaf_value=174.53361237640897 181.49871326337916 182.43761979269539 189.87841234065718 192.18730240464285 216.82245193849641 188.27163972791288 183.99643197782618 212.83088233657656 181.65734649069236 185.63105414216545 208.3250744469938 219.18788749198296 245.55249285651257 214.59346833366226 198.10344031361046 223.91004603975028 191.8198745285309 236.32358824453439 195.21072494691714 206.28379529385285 187.78429384675556 205.27867098171077 180.18321862842893 197.76396254086296 189.87802389156016 198.22695448155565 221.91231328710234 200.15660009130653 210.2845177009352 236.13464336331853
leaf_weight=3765 1432 99 117 436 177 487 482 334 51 396 621 106 240 83 764 291 560 83 139 178 767 281 154 278 66 34 92 415 49 57
leaf_count=3765 1432 99 117 436 177 487 482 334 51 396 621 106 240 83 764 291 560 83 139 178 767 281 154 278 66 34 92 415 49 57
internal_value=190.38 196.816 203.068 209.644 213.112 189.129 194.497 223.605 197.807 196.093 198.081 230.486 237.475 206.391 202.986 214.151 184.098 225.459 205.927 193.58 191.269 199.328 189.31 191.721 203.901 205.227 215.521 202.96 210.37 224.185
internal_weight=13034 9269 5112 2631 2195 4157 2011 857 1529 2481 2085 523 346 1338 930 408 2146 166 760 1325 945 380 714 765 764 698 126 572 157 106
internal_count=13034 9269 5112 2631 2195 4157 2011 857 1529 2481 2085 523 346 1338 930 408 2146 166 760 1325 945 380 714 765 764 698 126 572 157 106
is_linear=0
shrinkage=1


Tree=1
num_leaves=31
num_cat=0
split_feature=0 1 5 0 0 5 0 0 0 0 9 0 0 10 9 0 0 0 9 11 2 10 9 0 0 9 0 3 0 0
split_gain=1.0768e+08 3.64077e+07 2.12681e+07 1.63712e+07 1.2261e+07 6.36773e+06 5.54725e+06 4.744e+06 5.64518e+06 4.35488e+06 4.2146e+06 3.33239e+06 3.28682e+06 3.33617e+06 2.94974e+06 1.12397e+07 8.44978e+06 2.06368e+06 1.88403e+06 1.84844e+06 1.69235e+06 1.61627e+06 1.41093e+06 4.37989e+06 3.44416e+06 1.19531e+06 1.15372e+06 1.10595e+06 1.08447e+06 1.07944e+06
threshold=-0.45833333333333331 -0.28124999999999994 -1.0000000180025095e-35 0.70833333333333337 0.29166666666666669 -1.0000000180025095e-35 0.54166666666666685 0.70833333333333337 0.37500000000000006 0.37500000000000006 -1.0000000180025095e-35 0.54166666666666685 0.70833333333333337 1.5000000000000002 -1.0000000180025095e-35 -0.29166666666666657 -0.20833333333333329 -0.37499999999999994 -1.0000000180025095e-35 2.5000000000000004 0.34230635637374113 2.5000000000000004 -1.0000000180025095e-35 -0.29166666666666657 -0.20833333333333329 -1.0000000180025095e-35 -0.54166666666666663 0.81666666666666665 0.62500000000000011 0.87500000000000011
decision_type=2 2 2 2 2 2 2 2 2 2 2 2 2 2 2 2 2 2 2 2 2 2 2 2 2 2 2 2 2 2
left_child=26 5 7 4 14 21 9 8 19 -6 -11 18 13 -7 16 17 -4 -16 -10 22 -12 -2 24 -24 -3 -8 -1 -20 -27 -5
right_child=1 2 3 29 6 12 25 -9 11 10 20 -13 -14 -15 15 -17 -18 -19 27 -21 -22 -23 23 -25 -26 28 -28 -29 -30 -31
leaf_value=-14.976169061959991 -9.0862502406448851 -7.1305068896697454 -0.61253591475663371 3.3325671910265164 22.363442608699707 -0.59428685785208024 10.095313373287169 -4.9221115565312568 9.5093147092395363 24.410843897674045 36.370344795499527 6.3864230858761335 -8.2788883299989422 9.8185687014314009 22.210642766952517 6.4211419219175543 28.933679062180353 42.132029711283174 26.891811358570539 -7.2289819338899335 52.685634951301701 -2.2196481080412123 15.452526994185016 -0.97032606001543176 12.851513302611133 28.677396994696721 -9.9741792616347844 3.9066903425299602 15.978491381922765 -6.2303508120706717
leaf_weight=3227 1193 111 135 367 207 700 113 474 117 118 98 345 265 549 104 916 342 104 233 162 181 481 198 903 387 135 538 23 134 174
leaf_count=3227 1193 111 135 367 207 700 113 474 117 118 98 345 265 549 104 916 342 104 233 162 181 481 198 903 387 135 538 23 134 174
internal_value=-3.87568e-08 5.79288 10.3307 16.0769 19.3852 -2.86294 28.1576 4.2441 5.99673 34.1227 40.2541 13.4701 1.83652 3.9827 13.9825 11.1863 20.5715 32.1713 20.0221 2.94966 46.9548 -7.11323 3.98089 1.9831 8.39769 18.726 -14.2614 24.8267 22.3515 0.256878
internal_weight=13034 9269 6081 3128 2587 3188 986 2953 2479 604 397 718 1514 1249 1601 1124 477 208 373 1761 279 1674 1599 1101 498 382 3765 256 269 541
internal_count=13034 9269 6081 3128 2587 3188 986 2953 2479 604 397 718 1514 1249 1601 1124 477 208 373 1761 279 1674 1599 1101 498 382 3765 256 269 541
is_linear=0
shrinkage=0.1


Tree=2
num_leaves=31
num_cat=0
split_feature=0 1 5 0 0 5 0 0 10 0 0 0 9 9 0 0 6 0 0 0 9 0 0 11 0 2 0 9 0 0
split_gain=8.72207e+07 3.02814e+07 1.53657e+07 1.04156e+07 1.02753e+07 7.35602e+06 4.73967e+06 4.15637e+06 3.7851e+06 3.40732e+06 5.08135e+06 3.26571e+06 3.33635e+06 2.35044e+06 6.62707e+06 6.39084e+06 2.03687e+06 1.63137e+06 1.423e+06 1.28039e+06 1.21502e+06 3.33555e+06 2.55251e+06 1.14261e+06 1.25249e+06 1.11334e+06 1.05776e+06 4.82384e+06 1.36599e+06 934516
threshold=-0.45833333333333331 -1.0000000180025095e-35 -1.0000000180025095e-35 0.70833333333333337 0.29166666666666669 -1.0000000180025095e-35 0.62500000000000011 0.54166666666666685 1.5000000000000002 0.70833333333333337 0.29166666666666669 0.37500000000000006 -1.0000000180025095e-35 -1.0000000180025095e-35 -0.29166666666666657 -0.20833333333333329 -0.58333333333333315 0.62500000000000011 0.62500000000000011 -0.37499999999999994 -1.0000000180025095e-35 -0.29166666666666657 -0.20833333333333329 2.5000000000000004 0.29166666666666669 -0.65769364362625893 -0.29166666666666657 -1.0000000180025095e-35 -0.37499999999999994 -0.54166666666666663
decision_type=2 2 2 2 2 2 2 2 2 2 2 2 2 2 2 2 2 2 2 2 2 2 2 2 2 2 2 2 2 2
left_child=29 5 9 4 13 16 8 11 25 10 20 -6 -13 15 19 -4 -2 -18 -12 -15 22 -22 -3 24 26 -7 27 -10 -29 -1
right_child=1 2 3 -5 7 6 -8 -9 23 -11 18 12 -14 14 -16 -17 17 -19 -20 -21 21 -23 -24 -25 -26 -27 -28 28 -30 -31
leaf_value=-13.478552309531047 -8.3327762038392184 -6.4342544011094347 -0.38983533046184443 1.5744014964797834 21.562201681514246 -2.5755363687582133 -5.4259212040802254 18.330499157791365 -8.6069206929674333 -3.7815004067288509 14.902610189870792 23.486353864984693 44.78810549321274 19.571396453122063 6.309321900940847 27.284012847626741 0.17588235810585787 -8.5380181555439822 3.7093499945222046 37.136365125265471 13.010608393422675 -2.1840917091481535 12.238329311621996 -1.6512035033919596 19.758196493183696 5.0740443289867594 6.8947610232183614 16.57848932305161 39.347307064658722 -8.9767611424940679
leaf_weight=3227 1054 99 117 436 177 410 482 334 51 396 621 106 240 83 764 291 798 294 139 83 178 767 281 66 164 355 377 49 57 538
leaf_count=3227 1054 99 117 436 177 410 482 334 51 396 621 106 240 83 764 291 798 294 139 83 178 767 281 66 164 355 377 49 57 538
internal_value=-7.19872e-08 5.21359 10.3679 15.6918 18.496 -1.12477 3.22074 27.045 5.9465 4.72201 6.33707 32.6103 38.2621 13.0203 10.2442 19.3481 -5.19691 -2.17017 12.8554 28.3539 2.59824 0.677979 7.37363 10.9252 12.1144 0.974269 9.76688 16.6636 28.8221 -12.8353
internal_weight=13034 9269 5112 2631 2195 4157 2011 857 1529 2481 2085 523 346 1338 930 408 2146 1092 760 166 1325 945 380 764 698 765 534 157 106 3765
internal_count=13034 9269 5112 2631 2195 4157 2011 857 1529 2481 2085 523 346 1338 930 408 2146 1092 760 166 1325 945 380 764 698 765 534 157 106 3765
is_linear=0
shrinkage=0.1


Tree=3
num_leaves=31
num_cat=0
split_feature=0 1 5 0 0 5 0 0 0 0 10 0 3 9 0 0 0 9 0 10 0 0 9 0 0 0 2 11 0 0
split_gain=7.06488e+07 2.47376e+07 1.3209e+07 9.22245e+06 8.08013e+06 5.29504e+06 3.47201e+06 3.23447e+06 3.22921e+06 3.01116e+06 2.7921e+06 2.52392e+06 2.06859e+06 1.91612e+06 6.25973e+06 5.55267e+06 1.85794e+06 2.90744e+06 1.80719e+06 1.56381e+06 1.38248e+06 1.18722e+06 963430 2.93555e+06 2.15647e+06 1.00344e+06 934137 859859 946650 853284
threshold=-0.45833333333333331 -0.15625000000000003 -1.0000000180025095e-35 0.70833333333333337 0.29166666666666669 -1.0000000180025095e-35 0.62500000000000011 0.79166666666666685 0.62500000000000011 0.29166666666666669 1.5000000000000002 0.62500000000000011 0.45000000000000001 -1.0000000180025095e-35 -0.29166666666666657 -0.12499999999999999 0.37500000000000006 -1.0000000180025095e-35 0.54166666666666685 2.5000000000000004 -0.29166666666666657 -0.37499999999999994 -1.0000000180025095e-35 -0.29166666666666657 -0.29166666666666657 -0.37499999999999994 0.39492879472038928 2.5000000000000004 0.29166666666666669 0.79166666666666685
decision_type=2 2 2 2 2 2 2 2 2 2 2 2 2 2 2 2 2 2 2 2 2 2 2 2 2 2 2 2 2 2
left_child=-1 5 7 4 13 19 12 9 10 22 -7 26 16 15 21 20 -6 -18 -19 -2 -4 -15 24 25 -3 -24 -11 28 -12 -5
right_child=1 2 3 29 6 8 -8 -9 -10 11 27 -13 -14 14 -16 -17 17 18 -20 -21 -22 -23 23 -25 -26 -27 -28 -29 -30 -31
leaf_value=-11.551741027791465 -7.1955409185002708 -9.7916061782836934 -6.3405678015947347 6.7291870751780669 19.542853420939526 0.42381294016716081 11.027594665336338 -6.0345007257312027 -5.246382233727612 7.9127104490516658 8.2925037516740403 1.768637320920825 9.0364370107650753 17.862815831297187 5.5685867079368769 26.399921947603481 19.598348999513341 41.46670395519601 26.10158251042952 -1.0474705297901461 11.58882452569982 33.841423637636247 4.0071913260221477 -2.1072786458630022 9.4309097393285857 18.223737394580475 15.6127292516904 -2.8522052874931925 17.642617544135849 -2.1476878363397218
leaf_weight=3765 1318 70 80 167 179 728 176 291 433 249 446 300 61 93 836 261 146 233 114 603 93 93 95 817 351 104 429 52 143 308
leaf_count=3765 1318 70 80 167 179 728 176 291 433 249 446 300 61 93 836 261 146 233 114 603 93 93 95 817 351 104 429 52 143 308
internal_value=6.27729e-08 4.69223 8.92495 13.6887 16.2426 -1.61307 23.6402 3.92528 2.28074 5.12541 4.66148 9.40564 26.6686 11.6241 9.26011 17.191 28.2691 31.4375 36.4188 -5.26567 3.29778 25.8521 2.21235 0.545576 6.23477 11.4369 12.7848 9.47432 10.5626 0.973235
internal_weight=13034 9269 5546 2840 2365 3723 909 2706 1802 2415 1369 978 733 1456 1022 434 672 493 347 1921 173 186 1437 1016 421 199 678 641 589 475
internal_count=13034 9269 5546 2840 2365 3723 909 2706 1802 2415 1369 978 733 1456 1022 434 672 493 347 1921 173 186 1437 1016 421 199 678 641 589 475
is_linear=0
shrinkage=0.1


Tree=4
num_leaves=31
num_cat=0
split_feature=0 2 5 5 0 1 0 0 0 6 0 9 0 0 0 9 11 9 0 0 0 0 0 0 11 9 9 9 0 0
split_gain=5.72255e+07 2.0153e+07 7.68435e+06 7.25511e+06 5.43111e+06 4.40111e+06 3.42651e+06 5.75234e+06 2.83225e+06 2.68471e+06 2.32131e+06 2.15982e+06 2.5161e+06 2.24392e+06 2.05352e+06 1.73686e+06 1.64502e+06 1.43809e+06 3.12058e+06 1.88853e+06 1.81615e+06 1.39626e+06 2.29764e+06 2.18855e+06 1.39238e+06 1.20421e+06 1.06821e+06 971752 1.25601e+06 1.25177e+06
threshold=-0.45833333333333331 0.39492879472038928 -1.0000000180025095e-35 -1.0000000180025095e-35 0.62500000000000011 -0.40624999999999994 0.70833333333333337 0.37500000000000006 0.54166666666666685 -0.58333333333333315 0.37500000000000006 -1.0000000180025095e-35 -0.29166666666666657 -0.12499999999999999 0.70833333333333337 -1.0000000180025095e-35 2.5000000000000004 -1.0000000180025095e-35 -0.29166666666666657 -0.37499999999999994 0.37500000000000006 0.79166666666666685 0.37500000000000006 0.54166666666666685 2.5000000000000004 -1.0000000180025095e-35 -1.0000000180025095e-35 -1.0000000180025095e-35 -0.12499999999999999 -0.29166666666666657
decision_type=2 2 2 2 2 2 2 2 2 2 2 2 2 2 2 2 2 2 2 2 2 2 2 2 2 2 2 2 2 2
left_child=-1 2 9 21 5 17 7 11 15 -2 24 13 -13 -5 16 -9 -11 -4 19 -19 -20 22 27 26 -7 -12 -24 28 -3 -29
right_child=1 3 4 6 -6 10 -8 8 -10 14 25 12 -14 -15 -16 -17 -18 18 20 -21 -22 -23 23 -25 -26 -27 -28 29 -30 -31
leaf_value=-10.396567200381719 -6.742030579842397 -1.6258779834741834 -3.5208982032626426 5.6943134017374328 -3.0280868902194258 9.5960186389755435 3.7553035581162209 20.521771927137635 17.708166975672967 2.5221366624283093 8.4845733051619874 25.8383497628821 7.3158772464404027 24.537392091338255 -6.8899413351983867 38.859728982713492 -6.5889872586625264 6.3505672934087549 -2.8672517808042151 29.263345369611468 12.188279088643881 -3.9907330540283557 9.2306985983208047 6.0996125658952964 -4.2656082071835488 22.833233343736801 24.465552314446896 13.06749104743912 12.653308045186138 0.029554624493597345
leaf_weight=3765 1098 87 335 87 735 876 237 74 221 1294 82 83 630 231 404 171 234 74 349 70 104 139 67 265 79 204 147 84 211 597
leaf_count=3765 1098 87 335 87 735 876 237 74 221 1294 82 83 630 231 404 171 234 74 349 70 104 139 67 265 79 204 147 84 211 597
internal_value=-4.30973e-08 4.22301 0.730637 10.4487 4.40268 6.91607 14.9275 16.6962 25.9166 -2.79355 10.8162 12.5287 9.47207 19.3822 -0.549542 33.3209 1.12685 1.72295 4.66547 17.4887 0.589206 5.58565 6.49863 12.1739 8.44935 18.7193 19.6958 3.72187 8.48455 1.63776
internal_weight=13034 9269 5938 3331 2908 2173 1734 1497 466 3030 1241 1031 713 318 1932 245 1528 932 597 144 453 1597 1458 479 955 286 214 979 298 681
internal_count=13034 9269 5938 3331 2908 2173 1734 1497 466 3030 1241 1031 713 318 1932 245 1528 932 597 144 453 1597 1458 479 955 286 214 979 298 681
is_linear=0
shrinkage=0.1


Tree=5
num_leaves=31
num_cat=0
split_feature=0 1 5 0 0 0 0 10 3 0 9 0 0 0 9 0 0 11 0 9 0 5 5 9 0 0 9 0 0 9
split_gain=4.63527e+07 1.68352e+07 9.12239e+06 7.15144e+06 5.60197e+06 2.95455e+06 2.63853e+06 2.63366e+06 2.38412e+06 1.86647e+06 1.88027e+06 1.6386e+06 2.03592e+06 1.59042e+06 1.39614e+06 5.86558e+06 4.25906e+06 1.22418e+06 1.10143e+06 1.34823e+06 1.03292e+06 1.01996e+06 945501 939203 2.24517e+06 1.19637e+06 835881 764505 756958 807337
threshold=-0.45833333333333331 -0.28124999999999994 -1.0000000180025095e-35 0.70833333333333337 0.29166666666666669 0.70833333333333337 0.54166666666666685 2.5000000000000004 0.6166666666666667 0.37500000000000006 -1.0000000180025095e-35 0.79166666666666685 0.29166666666666669 0.54166666666666685 -1.0000000180025095e-35 -0.29166666666666657 -0.20833333333333329 2.5000000000000004 0.37500000000000006 -1.0000000180025095e-35 -0.37499999999999994 -1.0000000180025095e-35 -1.0000000180025095e-35 -1.0000000180025095e-35 -0.29166666666666657 -0.12499999999999999 -1.0000000180025095e-35 0.87500000000000011 -0.54166666666666663 -1.0000000180025095e-35
decision_type=2 2 2 2 2 2 2 2 2 2 2 2 2 2 2 2 2 2 2 2 2 2 2 2 2 2 2 2 2 2
left_child=28 5 8 4 14 7 9 21 11 -6 -11 12 23 18 16 17 -4 20 -14 -20 -16 -2 -9 25 -25 -3 -8 -5 -1 -30
right_child=1 2 3 27 6 -7 26 22 -10 10 -12 -13 13 -15 15 -17 -18 -19 19 -21 -22 -23 -24 24 -26 -27 -28 -29 29 -31
leaf_value=-9.9358660023769136 -4.9874217192614889 -1.3208552815886432 -1.3223455361966734 2.7822238140843547 15.181468637035664 -8.2439919760653062 5.0439019027009477 0.33787698159479118 -3.0125931754224138 16.311748089022554 31.369564146636634 -4.2615912293924874 6.0591966891692861 4.0058658789363824 17.350830018002053 3.8183631026035574 19.654316309111859 -1.1006176516413688 6.7475460879573035 20.348070480423896 32.178842043876649 -0.13886823753279168 7.1907655054715809 12.427288523456758 -1.4489282460843631 10.428994668749247 15.293069976789802 -5.2656509061654413 -11.463436265468598 -3.1945658167449569
leaf_weight=3227 948 129 135 367 207 626 113 365 554 118 279 206 177 404 92 916 342 20 109 220 96 800 449 138 752 264 269 174 175 363
leaf_count=3227 948 129 135 367 207 626 113 365 554 118 279 206 177 404 92 916 342 20 109 220 96 800 449 138 752 264 269 174 175 363
internal_value=-2.41413e-08 3.80071 6.88648 10.6498 12.8363 -2.0853 18.766 -0.580481 2.9002 22.8799 26.8939 4.26563 5.06664 8.68451 9.18446 7.26072 13.7175 22.4204 12.42 15.8421 24.9226 -2.7684 4.11791 2.50057 0.702665 6.57217 12.2612 0.193813 -9.35691 -5.88425
internal_weight=13034 9269 6081 3128 2587 3188 986 2562 2953 604 397 2399 2193 910 1601 1124 477 208 506 329 188 1748 814 1283 890 393 382 541 3765 538
internal_count=13034 9269 6081 3128 2587 3188 986 2562 2953 604 397 2399 2193 910 1601 1124 477 208 506 329 188 1748 814 1283 890 393 382 541 3765 538
is_linear=0
shrinkage=0.1


Tree=6
num_leaves=31
num_cat=0
split_feature=0 1 5 0 0 0 2 5 0 0 0 0 3 0 9 0 9 0 0 0 9 9 0 9 9 0 0 0 6 0
split_gain=3.75457e+07 1.41019e+07 6.63844e+06 4.44938e+06 4.82173e+06 3.56232e+06 2.89212e+06 2.27365e+06 2.19054e+06 1.597e+06 1.81955e+06 1.5142e+06 1.48966e+06 1.17366e+06 3.21523e+06 1.35641e+06 1.059e+06 3.31392e+06 3.11467e+06 1.01393e+06 1.46506e+06 915402 901399 1.56344e+06 895815 1.54358e+06 872905 740513 671164 655036
threshold=-0.45833333333333331 -1.0000000180025095e-35 -1.0000000180025095e-35 0.70833333333333337 0.29166666666666669 0.62500000000000011 -0.71031608197290719 -1.0000000180025095e-35 0.62500000000000011 0.79166666666666685 0.29166666666666669 0.62500000000000011 0.51666666666666672 -0.29166666666666657 -1.0000000180025095e-35 -0.37499999999999994 -1.0000000180025095e-35 -0.29166666666666657 -0.20833333333333329 0.29166666666666669 -1.0000000180025095e-35 -1.0000000180025095e-35 0.37500000000000006 -1.0000000180025095e-35 -1.0000000180025095e-35 -0.20833333333333329 -1.0000000180025095e-35 0.54166666666666685 1.0000000180025095e-35 -1.0000000180025095e-35
decision_type=2 2 2 2 2 2 2 2 2 2 2 2 2 2 2 2 2 2 2 2 2 2 2 2 2 2 2 2 2 2
left_child=-1 5 9 4 16 6 24 -8 12 10 -3 -12 22 14 -9 -16 17 -4 -18 20 -15 -21 -6 -24 -2 -26 -19 28 -25 -20
right_child=1 2 3 -5 8 -7 7 13 -10 -11 11 -13 -14 19 15 -17 18 26 29 21 -22 -23 23 27 25 -27 -28 -29 -30 -31
leaf_value=-8.4212194415558859 -7.613105961559917 1.7307972786926999 -6.3802353781622818 1.210313084012393 15.504827307244026 -5.9468169953375494 -0.43146175109303037 -8.6974896380241891 7.811429672858802 -4.2526380297495052 10.306761044935712 1.4379543902893221 2.3527647973526093 9.8392156829994732 11.068049490054449 31.842704796068599 15.945753863774815 10.916248769345492 -1.6255871318028747 1.3315492398656754 -0.9861899255650739 13.045107891799161 15.147645614333186 26.681637067061207 5.1276992813606093 -5.379677991732791 21.298441788128443 20.888471728071163 37.820753829780664 5.141384527969052
leaf_weight=3765 371 1325 74 436 169 1048 1069 47 166 256 621 279 42 178 60 66 260 138 207 98 420 209 141 143 227 364 196 109 87 463
leaf_count=3765 371 1325 74 436 169 1048 1069 47 166 256 621 279 42 178 60 66 260 138 207 98 420 209 141 143 227 364 196 109 87 463
internal_value=-4.85743e-09 3.42064 6.938 10.4374 12.2702 -0.904776 0.794825 2.83642 18.1265 3.22705 4.08764 7.55743 20.6044 6.07701 13.6238 21.95 8.51918 12.7667 6.65576 4.63436 2.23609 9.30593 21.7856 23.997 -3.76162 -1.34385 17.0088 27.6776 30.8951 3.05069
internal_weight=13034 9269 5112 2631 2195 4157 3109 2147 857 2481 2225 900 691 1078 173 126 1338 408 930 905 598 307 649 480 962 591 334 339 230 670
internal_count=13034 9269 5112 2631 2195 4157 3109 2147 857 2481 2225 900 691 1078 173 126 1338 408 930 905 598 307 649 480 962 591 334 339 230 670
is_linear=0
shrinkage=0.1


Tree=7
num_leaves=31
num_cat=0
split_feature=0 2 1 5 11 0 5 0 0 0 8 0 0 0 9 9 9 0 0 0 0 0 0 9 6 0 8 0 9 0
split_gain=3.0412e+07 1.19127e+07 4.44592e+06 3.91045e+06 3.88159e+06 3.58699e+06 3.08165e+06 1.91608e+06 2.67053e+06 1.99276e+06 1.00788e+06 931492 1.47526e+06 1.25123e+06 3.51444e+06 2.93595e+06 930511 2.33301e+06 819832 979296 772078 1.90678e+06 789330 711324 683452 667064 860702 662091 1.24112e+06 658509
threshold=-0.45833333333333331 0.39492879472038928 -0.59374999999999989 -1.0000000180025095e-35 2.5000000000000004 0.70833333333333337 -1.0000000180025095e-35 0.79166666666666685 0.29166666666666669 0.62500000000000011 0.62500000000000011 0.29166666666666669 0.54166666666666685 -0.20833333333333329 -1.0000000180025095e-35 -1.0000000180025095e-35 -1.0000000180025095e-35 -0.20833333333333329 -0.29166666666666657 -0.37499999999999994 0.70833333333333337 0.37500000000000006 0.54166666666666685 -1.0000000180025095e-35 -0.41666666666666657 -0.29166666666666657 -0.62499999999999989 0.37500000000000006 -1.0000000180025095e-35 0.37500000000000006
decision_type=2 2 2 2 2 2 2 2 2 2 2 2 2 2 2 2 2 2 2 2 2 2 2 2 2 2 2 2 2 2
left_child=-1 2 16 20 5 6 24 8 10 27 25 13 29 14 -8 -15 -2 -18 19 -16 21 -3 23 -23 -4 -5 -27 -10 -29 -13
right_child=1 3 4 7 -6 -7 11 -9 9 -11 -12 12 -14 15 18 -17 17 -19 -20 -21 -22 22 -24 -25 -26 26 -28 28 -30 -31
leaf_value=-7.5790975414317945 -7.2605355056160592 2.8143926758642586 -1.4977585111218001 14.902622096392575 -6.1448643917184924 -3.0807162843584535 -3.5983029357525482 -0.020008740864746962 14.263462329633308 8.6113535846655189 16.838159649830963 9.0488370596805474 5.0900275176714276 13.635851609676468 13.319620642600917 -0.91520177321469243 5.5010140288301876 -5.2257489840149072 9.5128494048386472 28.79290072529815 -1.1629553249331335 6.6167655105021472 6.1847266577883984 19.048864089226239 2.9795594718208496 13.676195323911541 4.3964549289932089 13.504872537558933 26.432833948443012 18.67196825202906
leaf_weight=3765 590 979 534 98 509 744 119 141 132 208 126 107 242 196 78 474 280 735 89 86 223 67 181 147 943 122 553 106 248 212
leaf_count=3765 590 979 534 98 509 744 119 141 132 208 126 107 242 196 78 474 280 735 89 86 223 67 181 147 943 122 553 106 248 212
internal_value=-4.3629e-08 3.07857 0.393505 7.86511 2.05885 3.15082 4.6561 11.1533 12.1422 16.8023 8.54483 7.69236 10.9777 5.9236 10.5741 3.34152 -4.1024 -2.26664 17.2402 21.4337 4.29486 5.18066 11.0454 15.1566 1.36081 7.193 6.07368 20.3079 22.5617 15.4441
internal_weight=13034 9269 5938 3331 4333 3824 3080 1734 1593 694 899 1603 561 1042 372 670 1605 1015 253 164 1597 1374 395 214 1477 773 675 486 354 319
internal_count=13034 9269 5938 3331 4333 3824 3080 1734 1593 694 899 1603 561 1042 372 670 1605 1015 253 164 1597 1374 395 214 1477 773 675 486 354 319
is_linear=0
shrinkage=0.1


Tree=8
num_leaves=31
num_cat=0
split_feature=0 2 0 10 5 11 0 0 0 0 5 9 0 11 5 8 2 0 0 0 9 0 0 0 9 9 0 0 9 0
split_gain=2.46337e+07 9.64927e+06 3.77465e+06 3.24624e+06 3.16746e+06 2.34628e+06 2.17342e+06 1.55203e+06 2.16313e+06 1.61414e+06 1.5305e+06 1.39519e+06 1.0244e+06 957920 980649 825552 741484 642927 1.13538e+06 1.03254e+06 656374 884990 844936 613136 653943 576172 571584 557933 673505 536294
threshold=-0.45833333333333331 0.39492879472038928 0.62500000000000011 1.5000000000000002 -1.0000000180025095e-35 2.5000000000000004 0.37500000000000006 0.79166666666666685 0.29166666666666669 0.62500000000000011 -1.0000000180025095e-35 -1.0000000180025095e-35 0.54166666666666685 2.5000000000000004 -1.0000000180025095e-35 0.37500000000000006 -0.60507120527961078 0.79166666666666685 0.37500000000000006 0.54166666666666685 -1.0000000180025095e-35 -0.29166666666666657 -0.29166666666666657 -0.54166666666666663 -1.0000000180025095e-35 -1.0000000180025095e-35 0.87500000000000011 -0.87499999999999989 -1.0000000180025095e-35 0.37500000000000006
decision_type=2 2 2 2 2 2 2 2 2 2 2 2 2 2 2 2 2 2 2 2 2 2 2 2 2 2 2 2 2 2
left_child=23 2 3 13 17 6 10 8 15 29 -5 -8 -13 14 -2 -6 -4 18 20 25 21 -3 -22 27 -25 -20 -18 28 -1 -10
right_child=1 4 16 5 7 -7 11 -9 9 -11 -12 12 -14 -15 -16 -17 26 -19 19 -21 22 -23 -24 24 -26 -27 -28 -29 -30 -31
leaf_value=-1.9069753292388687 -2.9346417925549004 -8.2542469395531555 -7.3070902126884052 0.58946903248333027 5.8303868933097327 -4.1268975046078369 3.2416507641541084 -0.01800778275685953 12.837116023627196 7.7502181443027585 6.5051826652425992 19.023324691297862 7.3441225453697401 -7.905556767422536 1.8874500007557331 12.627552525614336 -1.1058967780573352 -2.6329267816792292 5.9550890047158767 4.3021270647476308 10.210540860181764 8.4672621005136559 -0.50116219009386631 -8.717060874938964 -1.2750776225952407 17.143977897669995 -6.3547312814821595 -8.2780765263619376 -7.2249042676446225 20.305574552150773
leaf_weight=353 848 36 457 842 653 300 149 141 132 208 910 213 116 197 839 246 785 139 67 265 84 262 597 175 363 147 282 2142 732 354
leaf_count=353 848 36 457 842 653 300 149 141 132 208 910 213 116 197 839 246 785 139 67 265 84 262 597 175 363 147 282 2142 732 354
internal_value=7.48747e-08 2.77072 0.354154 1.83563 7.0786 4.17584 5.2928 10.0379 10.928 15.1221 3.66213 11.2696 14.9054 -1.30701 -0.536459 7.69035 -3.93668 3.86538 4.4849 8.47436 2.53295 6.44721 0.820105 -6.82119 -3.6958 13.6409 -2.49312 -7.34225 -5.49474 18.2771
internal_weight=13034 9269 5938 4414 3331 2530 2230 1734 1593 694 1752 478 329 1884 1687 899 1524 1597 1458 479 979 298 681 3765 538 214 1067 3227 1085 486
internal_count=13034 9269 5938 4414 3331 2530 2230 1734 1593 694 1752 478 329 1884 1687 899 1524 1597 1458 479 979 298 681 3765 538 214 1067 3227 1085 486
is_linear=0
shrinkage=0.1


Tree=9
num_leaves=31
num_cat=0
split_feature=0 1 5 0 11 0 0 3 0 9 0 0 0 0 0 0 9 6 8 0 8 8 0 8 0 0 9 0 0 5
split_gain=1.99533e+07 8.20452e+06 4.63381e+06 3.31998e+06 2.08041e+06 2.09513e+06 2.45391e+06 1.45271e+06 1.0788e+06 1.03675e+06 2.12368e+06 1.77616e+06 1.11814e+06 1.11348e+06 1.00407e+06 964103 974689 926052 753302 1.71653e+06 2.86938e+06 1.76569e+06 816729 848583 745822 1.44537e+06 678582 618717 617522 608585
threshold=-0.45833333333333331 -0.40624999999999994 -1.0000000180025095e-35 0.79166666666666685 2.5000000000000004 0.29166666666666669 0.54166666666666685 0.51666666666666672 0.79166666666666685 -1.0000000180025095e-35 -0.29166666666666657 -0.37499999999999994 0.37500000000000006 0.54166666666666685 -0.20833333333333329 0.37500000000000006 -1.0000000180025095e-35 -0.41666666666666657 0.37500000000000006 -0.29166666666666657 -0.62499999999999989 -0.62499999999999989 -1.0000000180025095e-35 0.62500000000000011 0.70833333333333337 0.29166666666666669 -1.0000000180025095e-35 -0.37499999999999994 -0.12499999999999999 -1.0000000180025095e-35
decision_type=2 2 2 2 2 2 2 2 2 2 2 2 2 2 2 2 2 2 2 2 2 2 2 2 2 2 2 2 2 2
left_child=-1 8 7 4 5 18 15 17 9 14 11 -11 -12 -14 -2 -7 -17 -3 19 20 -4 28 -20 -24 25 -19 -8 -22 -21 -13
right_child=1 2 3 -5 -6 6 26 -9 -10 10 12 29 13 -15 -16 16 -18 24 22 21 27 -23 23 -25 -26 -27 -28 -29 -30 -31
leaf_value=-6.1390688660994153 -10.253536847503412 -1.3597876590755251 -9.8366643772568807 -1.9457206182699789 -2.2353095276935679 10.874034243735714 1.918492203507395 -2.4365057079742356 -7.2210965071405688 0.22754712256913387 -4.1481662604705694 9.3206765334997606 8.5809799952366781 -1.5307597899422198 -2.1835534361454432 11.45186446493706 22.443639316880112 2.2238089211932706 5.8036873922973387 2.3221379252580499 12.8288277719079 1.200456172383515 8.2611247817338533 20.498993796602303 -1.1228956939049171 8.0827483835236276 9.4753217224417057 24.902020035006785 14.979095595315 22.653878573008949
leaf_weight=3765 210 450 43 374 185 207 168 684 371 144 724 67 170 303 580 113 282 1139 244 52 82 785 118 109 284 668 406 88 149 70
leaf_count=3765 210 450 43 374 185 207 168 684 371 144 724 67 170 303 580 113 282 1139 244 52 82 785 118 109 284 668 406 88 149 70
internal_value=2.39693e-08 2.49364 4.37068 6.94356 8.04042 8.70838 11.9416 1.65421 -2.22207 -1.40432 0.158794 7.98229 -1.6778 2.10348 -4.32874 16.4021 19.2992 2.75537 6.43153 5.10038 13.2412 3.34178 9.82018 14.1375 3.64098 4.3897 7.26357 19.0785 11.7047 16.1333
internal_weight=13034 9269 6630 3405 3031 2846 1176 3225 2639 2268 1478 281 1197 473 790 602 395 2541 1670 1199 213 986 471 227 2091 1807 574 170 201 137
internal_count=13034 9269 6630 3405 3031 2846 1176 3225 2639 2268 1478 281 1197 473 790 602 395 2541 1670 1199 213 986 471 227 2091 1807 574 170 201 137
is_linear=0
shrinkage=0.1


Tree=10
num_leaves=31
num_cat=0
split_feature=0 1 3 5 10 5 6 0 11 0 0 0 0 8 9 0 0 0 0 9 0 11 0 0 0 9 0 0 0 9
split_gain=1.61622e+07 6.99918e+06 2.9403e+06 2.39026e+06 1.98701e+06 1.41618e+06 1.25375e+06 756999 749444 704554 1.36526e+06 973598 671100 648888 590902 1.51747e+06 1.00521e+06 673887 582263 1.78998e+06 577848 569744 636440 564975 1.18721e+06 903548 786075 539522 997290 959268
threshold=-0.45833333333333331 1.0000000180025095e-35 0.28333333333333327 -1.0000000180025095e-35 1.5000000000000002 -1.0000000180025095e-35 0.25000000000000006 0.79166666666666685 2.5000000000000004 0.79166666666666685 0.37500000000000006 0.62500000000000011 0.62500000000000011 0.37500000000000006 -1.0000000180025095e-35 -0.29166666666666657 0.29166666666666669 -0.37499999999999994 -0.20833333333333329 -1.0000000180025095e-35 -0.29166666666666657 2.5000000000000004 0.62500000000000011 0.29166666666666669 0.62500000000000011 -1.0000000180025095e-35 -0.29166666666666657 0.62500000000000011 0.29166666666666669 -1.0000000180025095e-35
decision_type=2 2 2 2 2 2 2 2 2 2 2 2 2 2 2 2 2 2 2 2 2 2 2 2 2 2 2 2 2 2
left_child=-1 4 3 23 12 21 9 14 18 10 13 -12 -2 -5 20 17 -17 -16 19 -4 -7 22 -6 25 -25 -3 -27 28 29 -8
right_child=1 2 8 6 5 7 27 -9 -10 -11 11 -13 -14 -15 15 16 -18 -19 -20 -21 -22 -23 -24 24 -26 26 -28 -29 -30 -31
leaf_value=-5.5251620071564389 -1.8354424263820102 7.0311940786326943 -5.715534504234177 3.9284651283810592 1.4030016299464902 -7.4034352435440312 19.967083382010461 -2.9200222939882483 -4.0400049074257121 0.36454926242048924 15.523233991060406 6.3463656746386166 -5.9934157327316377 10.184374792617849 8.8224840379367446 0.50834092855065183 9.1071714554653802 23.583688782912034 0.46234447026575992 10.602206972091711 3.4071625690578955 -6.6239626184294496 -4.1493780327857364 8.6334112238242167 0.20871371668118699 10.102345644616905 -1.2591039442484417 4.5607331195268141 21.830547059471929 6.5275243664608356
leaf_weight=3765 1605 247 97 615 729 61 80 142 255 130 320 181 512 227 59 307 244 65 737 219 261 158 288 469 260 68 583 58 134 158
leaf_count=3765 1605 247 97 615 729 61 80 142 255 130 320 181 512 227 59 307 244 65 737 219 261 158 288 469 260 68 583 58 134 158
internal_value=1.39423e-08 2.24428 4.8741 6.37475 -0.627091 1.39839 8.78082 3.91106 0.824177 7.39401 8.07445 12.2078 -2.84106 5.61503 4.88399 6.56545 4.31617 16.5602 2.00211 5.59328 1.35919 -1.03729 -0.169354 3.56051 5.62872 1.88152 -0.0723473 13.5315 14.9301 11.045
internal_weight=13034 9269 4838 3530 4431 2314 1903 1139 1308 1473 1343 501 2117 842 997 675 551 124 1053 316 322 1175 1017 1627 729 898 651 430 372 238
internal_count=13034 9269 4838 3530 4431 2314 1903 1139 1308 1473 1343 501 2117 842 997 675 551 124 1053 316 322 1175 1017 1627 729 898 651 430 372 238
is_linear=0
shrinkage=0.1


Tree=11
num_leaves=31
num_cat=0
split_feature=0 1 0 9 0 5 2 0 0 11 0 9 9 0 0 0 0 0 9 0 5 5 3 6 9 5 0 6 0 6
split_gain=1.32337e+07 5.48349e+06 2.4953e+06 3.64753e+06 2.44614e+06 2.33821e+06 1.40266e+06 1.26984e+06 1.43266e+06 1.10829e+06 1.04724e+06 2.63412e+06 1.0307e+06 1.90343e+06 1.00006e+06 913930 801035 1.19471e+06 838058 1.79293e+06 727612 651354 541147 594319 539619 499213 489376 471142 465977 362663
threshold=-0.37499999999999994 1.0000000180025095e-35 -0.29166666666666657 -1.0000000180025095e-35 0.79166666666666685 -1.0000000180025095e-35 -0.65769364362625893 0.29166666666666669 0.62500000000000011 2.5000000000000004 -0.54166666666666663 -1.0000000180025095e-35 -1.0000000180025095e-35 -0.29166666666666657 -0.12499999999999999 0.79166666666666685 0.37500000000000006 0.54166666666666685 -1.0000000180025095e-35 -0.29166666666666657 -1.0000000180025095e-35 -1.0000000180025095e-35 0.51666666666666672 0.25000000000000006 -1.0000000180025095e-35 -1.0000000180025095e-35 -0.12499999999999999 0.25000000000000006 -0.95833333333333315 -0.41666666666666657
decision_type=2 2 2 2 2 2 2 2 2 2 2 2 2 2 2 2 2 2 2 2 2 2 2 2 2 2 2 2 2 2
left_child=10 2 3 -2 5 16 -4 12 22 15 28 -12 14 -14 -7 20 18 24 26 -20 -8 29 23 -9 -18 -5 -3 -16 -1 -13
right_child=1 4 6 25 -6 7 9 8 -10 -11 11 21 13 -15 27 -17 17 -19 19 -21 -22 -23 -24 -25 -26 -27 -28 -29 -30 -31
leaf_value=-2.7400182405455253 -7.2442200899124147 -0.4203875066018572 -3.9803155950912941 10.646216751119265 -1.958561832130898 2.4937570755807763 -0.32138405016545429 12.037352654228458 4.734469896156428 -6.0569715481511386 -9.1074449386316196 -5.7269268685438508 18.597012442664095 1.966885493957375 10.968148272583285 -3.9334372578744303 4.0592493458423347 2.1518644511255971 13.555697138008032 -1.5233645595716325 3.4813336047341248 4.5765910266670913 1.6561800027504945 19.298445703119242 13.341097739367809 20.331288991280655 7.6977329806639609 20.903026281897702 -5.9760996321416737 0.85780355553237764
leaf_weight=533 104 102 1186 104 506 117 967 463 301 258 340 127 76 729 166 342 90 403 87 842 1049 360 39 149 206 109 273 67 2694 245
leaf_count=533 104 102 1186 104 506 117 967 463 301 258 340 127 76 729 166 342 90 403 87 842 1049 360 39 149 206 109 273 67 2694 245
internal_value=1.92311e-08 2.23539 -0.416977 8.107 4.60219 5.40991 -1.12768 7.73548 10.4395 0.165599 -4.54202 -1.83406 5.50668 3.53693 10.0371 0.84644 2.96359 5.69499 1.49944 -0.111224 1.65731 1.54428 13.0773 13.8052 10.5189 15.6024 5.4896 13.825 -5.4416 -1.39021
internal_weight=13034 8735 4119 317 4616 4110 3802 2107 952 2616 4299 1072 1155 805 350 2358 2003 699 1304 929 2016 732 651 612 296 213 375 233 3227 372
internal_count=13034 8735 4119 317 4616 4110 3802 2107 952 2616 4299 1072 1155 805 350 2358 2003 699 1304 929 2016 732 651 612 296 213 375 233 3227 372
is_linear=0
shrinkage=0.1


Tree=12
num_leaves=31
num_cat=0
split_feature=0 2 0 9 3 10 5 0 5 0 9 0 0 0 11 9 0 0 2 0 1 0 9 0 0 0 9 2 3 9
split_gain=1.07193e+07 4.46815e+06 2.48046e+06 3.30095e+06 1.68883e+06 1.75382e+06 1.34091e+06 1.06553e+06 853151 848267 2.13364e+06 770872 1.08162e+06 787790 613304 593150 1.14913e+06 569563 547182 471624 457025 434459 430858 676859 413862 826297 931290 393720 398354 390466
threshold=-0.37499999999999994 0.34230635637374113 -0.29166666666666657 -1.0000000180025095e-35 0.74999999999999989 1.5000000000000002 -1.0000000180025095e-35 0.79166666666666685 -1.0000000180025095e-35 -0.54166666666666663 -1.0000000180025095e-35 0.79166666666666685 0.29166666666666669 0.62500000000000011 2.5000000000000004 -1.0000000180025095e-35 -0.29166666666666657 -0.12499999999999999 -0.55244876693296263 -1.0000000180025095e-35 -0.53125 0.87500000000000011 -1.0000000180025095e-35 -0.79166666666666663 0.54166666666666685 0.37500000000000006 -1.0000000180025095e-35 0.97377561653351907 -0.18333333333333343 -1.0000000180025095e-35
decision_type=2 2 2 2 2 2 2 2 2 2 2 2 2 2 2 2 2 2 2 2 2 2 2 2 2 2 2 2 2 2
left_child=9 2 3 -2 5 20 21 8 -7 22 -11 12 15 27 -5 17 -17 -8 -12 -10 -4 -3 23 -1 25 26 -21 28 -14 -27
right_child=1 6 4 14 -6 7 11 -9 19 10 18 -13 13 -15 -16 16 -18 -19 -20 24 -22 -23 -24 -25 -26 29 -28 -29 -30 -31
leaf_value=-0.69038961997241466 -5.5946792405447923 3.1168577641355073 -3.3980899057713856 15.587999960169441 -4.8336911042184045 0.95487753480403004 1.9462890917996327 -2.9609245635612162 1.5352476536797273 -8.1967003428234779 -2.5614343875885517 0.15921929449490879 15.234911196490913 5.2379650963282369 1.605951233373748 18.494003693953804 2.0499920925786421 11.837215457023719 3.2816835875839296 13.403621243055051 -0.23928606047839771 -4.9939036445341252 -5.6925642087905928 -5.8003088856301117 3.0575351828147497 6.4387057482849732 2.1562660381197931 4.7382226270134167 8.5446213362646883 17.817026548102351
leaf_weight=524 128 1541 996 244 733 994 83 346 277 340 237 161 329 218 36 46 558 195 495 104 848 69 2190 513 252 43 252 59 122 101
leaf_count=524 128 1541 996 244 733 994 83 346 277 340 237 161 329 218 36 46 558 195 495 104 848 69 2190 513 252 43 252 59 122 101
internal_value=-1.34514e-08 2.01185 0.214574 7.70874 -0.403627 0.367139 4.85795 2.16723 3.04432 -4.08782 -1.65066 6.75676 7.41651 10.2695 13.7903 5.0617 3.30235 8.88417 1.38985 5.06268 -1.94545 2.76925 -4.89744 -3.21825 6.36202 8.02748 5.44201 12.4202 13.4251 14.4193
internal_weight=13034 8735 5354 408 4946 4213 3381 2369 2023 4299 1072 1771 1610 728 280 882 604 278 732 1029 1844 1610 3227 1037 752 500 356 510 451 144
internal_count=13034 8735 5354 408 4946 4213 3381 2369 2023 4299 1072 1771 1610 728 280 882 604 278 732 1029 1844 1610 3227 1037 752 500 356 510 451 144
is_linear=0
shrinkage=0.1


Tree=13
num_leaves=31
num_cat=0
split_feature=0 1 0 5 0 9 11 10 6 0 9 0 0 9 0 0 0 5 9 9 0 0 11 0 0 11 2 5 11 0
split_gain=8.68262e+06 3.75987e+06 1.93663e+06 1.68831e+06 1.29887e+06 2.19803e+06 1.04398e+06 844875 712367 687096 1.72825e+06 645326 1.00785e+06 732748 1.64869e+06 623297 601618 525993 513063 506033 770501 532078 444048 431917 426028 418473 409436 380985 366023 365107
threshold=-0.37499999999999994 -0.15625000000000003 0.79166666666666685 -1.0000000180025095e-35 -0.29166666666666657 -1.0000000180025095e-35 1.0000000180025095e-35 2.5000000000000004 0.25000000000000006 -0.54166666666666663 -1.0000000180025095e-35 0.37500000000000006 0.54166666666666685 -1.0000000180025095e-35 -0.29166666666666657 0.37500000000000006 0.54166666666666685 -1.0000000180025095e-35 -1.0000000180025095e-35 -1.0000000180025095e-35 -0.29166666666666657 -1.0000000180025095e-35 2.5000000000000004 -0.12499999999999999 0.70833333333333337 2.5000000000000004 0.71066342480027822 -1.0000000180025095e-35 2.5000000000000004 0.54166666666666685
decision_type=2 2 2 2 2 2 2 2 2 2 2 2 2 2 2 2 2 2 2 2 2 2 2 2 2 2 2 2 2 2
left_child=9 4 3 11 5 -2 8 24 15 -1 -11 13 18 23 -15 19 -17 -12 -13 21 -21 -5 -8 -3 28 29 -23 -7 -6 -9
right_child=1 2 -4 6 7 27 22 25 -10 10 17 12 -14 14 -16 16 -18 -19 -20 20 -22 26 -24 -25 -26 -27 -28 -29 -30 -31
leaf_value=-4.4076957334502538 -6.5188613901747035 -0.83333005609675359 -1.8662634622430017 2.9375362695791782 -1.1918948945621479 7.6215487722007715 3.9828069376236117 3.0991730069010077 10.794316817975153 -7.3770302389737443 -1.386156804747479 2.7801689754412013 1.469596571087318 11.48463705683557 -1.7872100734621541 13.065825136502585 6.0270013752530023 3.9757956874060136 11.2444717015865 16.444182937209671 1.4654390065724257 16.990427918867635 -2.4068895260639049 6.2408593262582563 -5.1386200456229494 -5.2024980738759048 6.3000885199699832 16.852079043181046 -5.9265384417796589 -0.89410327159921121
leaf_weight=3227 94 117 599 117 1450 87 543 606 442 340 372 103 459 104 936 204 300 360 235 37 478 77 136 329 471 100 67 92 184 368
leaf_count=3227 94 117 599 117 1450 87 543 606 442 340 372 103 459 104 936 204 300 360 235 37 478 77 136 329 471 100 67 92 184 368
internal_value=2.02129e-08 1.81067 3.48773 4.17241 -0.755941 5.86334 6.02371 -1.32438 7.3331 -3.67904 -1.48559 2.22544 4.52115 0.994157 -0.460025 6.13789 8.87605 1.25087 8.66511 4.3595 2.54158 7.94659 2.70299 4.38507 -2.48885 0.957932 12.0165 12.3657 -1.72505 1.59042
internal_weight=13034 8735 5283 4684 3452 273 2401 3179 1722 4299 1072 2283 797 1486 1040 1280 504 732 338 776 515 261 679 446 2105 1074 144 179 1634 974
internal_count=13034 8735 5283 4684 3452 273 2401 3179 1722 4299 1072 2283 797 1486 1040 1280 504 732 338 776 515 261 679 446 2105 1074 144 179 1634 974
is_linear=0
shrinkage=0.1


Tree=14
num_leaves=31
num_cat=0
split_feature=0 1 3 0 9 5 11 1 0 0 9 0 9 0 0 5 2 0 0 9 2 6 6 2 0 0 0 9 0 0
split_gain=7.03293e+06 3.12502e+06 1.56958e+06 1.35619e+06 1.98797e+06 1.04213e+06 892337 871482 739966 1.24874e+06 858689 1.09178e+06 848837 675836 645349 587367 575726 561404 556548 1.39988e+06 441776 434119 387936 367717 406763 533425 673728 593963 655133 355146
threshold=-0.37499999999999994 1.0000000180025095e-35 0.51666666666666672 -0.29166666666666657 -1.0000000180025095e-35 -1.0000000180025095e-35 2.5000000000000004 -0.71874999999999989 0.70833333333333337 0.37500000000000006 -1.0000000180025095e-35 -0.29166666666666657 -1.0000000180025095e-35 0.54166666666666685 -0.12499999999999999 -1.0000000180025095e-35 0.65804098645363018 -0.20833333333333329 -0.54166666666666663 -1.0000000180025095e-35 -0.55244876693296263 1.0000000180025095e-35 -0.58333333333333315 1.0263980548801672 0.79166666666666685 0.37500000000000006 0.54166666666666685 -1.0000000180025095e-35 -0.29166666666666657 -0.87499999999999989
decision_type=2 2 2 2 2 2 2 2 2 2 2 2 2 2 2 2 2 2 2 2 2 2 2 2 2 2 2 2 2 2
left_child=18 3 5 4 -2 22 7 -5 9 10 14 -12 -11 21 -7 -9 -16 -4 29 -20 -21 -14 -3 24 25 27 -27 -24 -29 -1
right_child=1 2 17 6 -6 8 -8 15 -10 12 11 -13 13 -15 16 -17 -18 -19 19 20 -22 -23 23 -25 -26 26 -28 28 -30 -31
leaf_value=-2.4929206943484497 -5.4217269593706501 -6.4437637190024066 4.7676628363951474 -3.2883314867413511 11.444883222311317 1.7147847051572318 -5.4673195616118999 -1.051809319449549 1.3553641352343846 4.2990295486064518 17.310620483087032 1.9190413391215184 13.031727112940889 8.5143593405142877 14.877623830699338 1.9415493040070881 5.474790950836959 -2.5431341969025025 -6.6393272221789648 -2.4245919147121255 2.8256581404233221 22.235014674175218 5.983985771904841 -1.9087441180273892 -1.8838260258560546 10.34477915658915 2.9868666689736507 10.887148920694989 -0.31260841194635786 -4.7135629091053559
leaf_weight=1085 104 48 131 793 213 99 384 1269 333 170 49 775 134 202 164 1356 108 530 340 237 495 83 297 160 148 224 280 57 624 2142
leaf_count=1085 104 48 131 793 213 99 384 1269 333 170 49 775 134 202 164 1356 108 530 340 237 495 83 297 160 148 224 280 57 624 2142
internal_value=1.79337e-08 1.6296 3.41633 -0.372712 5.91136 4.17018 -0.89666 -0.383163 5.6827 6.49044 4.63301 2.83432 10.2589 12.677 8.62796 0.494474 11.1441 -1.09425 -3.31114 -1.33703 1.12578 16.5519 2.42807 2.66597 3.11502 3.61424 6.25705 2.25229 0.624816 -3.96693
internal_weight=13034 8735 4616 4119 317 3955 3802 3418 2117 1784 1195 824 589 419 371 2625 272 661 4299 1072 732 217 1838 1790 1630 1482 504 978 681 3227
internal_count=13034 8735 4616 4119 317 3955 3802 3418 2117 1784 1195 824 589 419 371 2625 272 661 4299 1072 732 217 1838 1790 1630 1482 504 978 681 3227
is_linear=0
shrinkage=0.1


Tree=15
num_leaves=31
num_cat=0
split_feature=0 2 0 11 10 0 0 9 9 9 0 0 0 9 0 0 0 0 7 0 1 0 0 9 3 5 0 5 9 9
split_gain=5.69667e+06 2.57352e+06 1.48437e+06 1.09978e+06 1.07159e+06 805934 921558 1.26633e+06 1.26624e+06 859750 749024 845968 1.089e+06 623340 1.19464e+06 651336 581341 580901 496101 487826 478493 477597 450804 1.1339e+06 433292 424760 364773 358576 354504 348567
threshold=-0.37499999999999994 0.34230635637374113 0.62500000000000011 2.5000000000000004 1.5000000000000002 0.37500000000000006 -0.29166666666666657 -1.0000000180025095e-35 -1.0000000180025095e-35 -1.0000000180025095e-35 0.87500000000000011 0.29166666666666669 0.62500000000000011 -1.0000000180025095e-35 -0.29166666666666657 -1.0000000180025095e-35 -0.20833333333333329 -0.12499999999999999 1.0000000180025095e-35 -1.0000000180025095e-35 1.1562500000000002 0.54166666666666685 -0.54166666666666663 -1.0000000180025095e-35 -0.18333333333333343 -1.0000000180025095e-35 0.37500000000000006 -1.0000000180025095e-35 -1.0000000180025095e-35 -1.0000000180025095e-35
decision_type=2 2 2 2 2 2 2 2 2 2 2 2 2 2 2 2 2 2 2 2 2 2 2 2 2 2 2 2 2 2
left_child=22 2 3 4 27 6 8 17 -6 -7 11 13 20 15 -15 -3 -9 -8 -19 -18 24 -11 29 -24 26 -25 -13 -2 -28 -1
right_child=1 10 -4 -5 5 9 7 16 -10 21 -12 12 -14 14 -16 -17 19 18 -20 -21 -22 -23 23 25 -26 -27 28 -29 -30 -31
leaf_value=-2.0598884862200104 -1.8177182610101181 1.1670282500862543 -2.6038905569672792 -3.5990087076373722 -2.5216579627000582 0.5801329847068003 0.27475039220567959 4.6712569024028445 13.304497527128815 12.755740430789629 -3.4303068143626056 6.0821242210570352 2.1993016405823771 11.829785432418188 0.19183131866225661 8.2637185026617619 -5.9000962745886847 9.5972112092363897 -5.7475349820178492 -0.38295590557014408 -0.36319056740578487 4.6212719315929069 -5.9753944910273837 -1.3565099402380889 5.1546472930556373 3.4619081791117789 6.4834670935318162 1.2799491923819499 13.171790787235947 -4.2854060617303604
leaf_weight=1037 757 224 1470 437 76 146 134 145 151 203 144 178 571 96 1086 306 244 251 23 467 68 112 340 372 288 360 106 738 314 2190
leaf_count=1037 757 224 1470 437 76 146 134 145 151 203 144 178 571 96 1086 306 244 251 23 467 68 112 340 372 288 360 106 738 314 2190
internal_value=8.16228e-09 1.46664 0.102638 1.12699 1.72614 3.26917 2.13932 1.08575 8.00587 6.92342 3.62662 3.94055 5.65341 2.41478 1.13705 5.26436 -1.09945 5.6704 8.30915 -2.27632 7.72081 9.86348 -2.98002 -1.20333 8.34125 1.0132 9.87593 -0.288569 11.4838 -3.57023
internal_weight=13034 8735 5354 3884 3447 1952 1491 1264 227 461 3381 3237 1525 1712 1182 530 856 408 274 711 954 315 4299 1072 886 732 598 1495 420 3227
internal_count=13034 8735 5354 3884 3447 1952 1491 1264 227 461 3381 3237 1525 1712 1182 530 856 408 274 711 954 315 4299 1072 886 732 598 1495 420 3227
is_linear=0
shrinkage=0.1


Tree=16
num_leaves=31
num_cat=0
split_feature=0 1 3 5 0 6 9 0 9 6 0 0 8 0 0 9 6 1 0 0 0 9 0 0 2 0 3 2 8 3
split_gain=4.6143e+06 2.20555e+06 1.57611e+06 1.01157e+06 805005 718889 473941 465372 940321 385312 370192 559890 375552 434816 365151 918460 389792 354598 314170 307237 305263 707845 601824 550052 307829 323039 302957 301498 274212 309433
threshold=-0.37499999999999994 -0.40624999999999994 0.41666666666666669 -1.0000000180025095e-35 -0.20833333333333329 1.0000000180025095e-35 -1.0000000180025095e-35 -0.29166666666666657 -1.0000000180025095e-35 -0.41666666666666657 0.70833333333333337 0.29166666666666669 0.37500000000000006 -0.29166666666666657 -0.54166666666666663 -1.0000000180025095e-35 -0.41666666666666657 -0.78124999999999989 0.87500000000000011 -0.95833333333333315 0.37500000000000006 -1.0000000180025095e-35 0.54166666666666685 -0.20833333333333329 0.97377561653351907 -0.12499999999999999 -1.0000000180025095e-35 1.0263980548801672 -0.62499999999999989 -0.5166666666666665
decision_type=2 2 2 2 2 2 2 2 2 2 2 2 2 2 2 2 2 2 2 2 2 2 2 2 2 2 2 2 2 2
left_child=14 7 3 9 6 18 -4 8 -2 -3 11 12 13 -7 19 -16 -17 -9 20 -1 21 24 -22 -23 25 -5 -19 -11 29 -15
right_child=1 2 4 5 -6 10 -8 17 -10 27 -12 -13 -14 28 15 16 -18 26 -20 -21 22 23 -24 -25 -26 -27 -28 -29 -30 -31
leaf_value=-1.0195329013617804 -5.842404810319076 -1.2513243674821126 -2.6540649990512901 1.5058970068321855 -2.0031378458028266 14.903793865634549 6.8327550637422423 -3.5685746826046039 8.1471294593637023 2.5493504247784 1.6466851608632329 10.089904321272094 9.1158727836326729 14.168632767750665 -5.3778550456376637 -2.4023661220921633 2.5185886525902257 0.13645531919569925 -3.2906729607968717 -3.6472229170928445 9.0542690591413102 7.650073202314049 2.7126963632176735 -0.93722389791424376 -2.4274211406707766 9.9757542396700671 -2.8857833313256567 -1.9868794263899325 1.2107052469669386 1.6506433331570589
leaf_weight=533 74 399 73 61 1056 31 189 683 137 1739 143 379 169 39 340 239 493 1040 74 2694 236 87 409 523 34 172 487 160 301 40
leaf_count=533 74 399 73 61 1056 31 189 683 137 1739 143 379 169 39 340 239 493 1040 74 2694 236 87 409 523 34 172 487 160 301 40
internal_value=-1.42697e-08 1.31998 2.30392 3.11542 -0.772132 4.42865 4.18948 -1.24617 3.24085 1.5736 6.39308 7.10083 5.14763 3.51592 -2.68202 -1.083 0.911883 -1.67457 3.07227 -3.21321 3.38163 2.1671 5.03302 0.287522 6.46126 7.75832 -0.827415 2.16715 2.58691 7.83041
internal_weight=13034 8735 6314 4996 1318 2698 262 2421 211 2298 1102 959 580 411 4299 1072 732 2210 1596 3227 1522 877 645 610 267 233 1527 1899 380 79
internal_count=13034 8735 6314 4996 1318 2698 262 2421 211 2298 1102 959 580 411 4299 1072 732 2210 1596 3227 1522 877 645 610 267 233 1527 1899 380 79
is_linear=0
shrinkage=0.1


Tree=17
num_leaves=31
num_cat=0
split_feature=0 1 3 0 9 2 0 0 0 9 0 11 5 9 11 6 8 0 9 0 9 2 0 9 9 0 5 10 9 6
split_gain=3.73759e+06 1.83742e+06 1.01661e+06 863161 1.28588e+06 698120 644279 759028 932425 1.27912e+06 619683 569743 512266 504027 500622 493528 360246 359131 554063 346680 448242 326918 402264 671154 363075 536881 323014 294889 275910 271291
threshold=-0.37499999999999994 0.093750000000000056 0.18333333333333332 -0.29166666666666657 -1.0000000180025095e-35 1.0263980548801672 -1.0000000180025095e-35 0.62500000000000011 0.37500000000000006 -1.0000000180025095e-35 0.79166666666666685 2.5000000000000004 -1.0000000180025095e-35 -1.0000000180025095e-35 2.5000000000000004 -0.24999999999999997 0.37500000000000006 -0.20833333333333329 -1.0000000180025095e-35 -0.29166666666666657 -1.0000000180025095e-35 -0.55244876693296263 -0.54166666666666663 -1.0000000180025095e-35 -1.0000000180025095e-35 -0.79166666666666663 -1.0000000180025095e-35 1.5000000000000002 -1.0000000180025095e-35 -0.41666666666666657
decision_type=2 2 2 2 2 2 2 2 2 2 2 2 2 2 2 2 2 2 2 2 2 2 2 2 2 2 2 2 2 2
left_child=21 3 5 4 -2 6 17 8 9 -8 11 12 -5 -10 19 -15 -11 28 -19 20 -4 -1 24 -24 25 -23 29 -14 -3 -6
right_child=1 2 14 10 26 -7 7 -9 13 16 -12 -13 27 15 -16 -17 -18 18 -20 -21 -22 22 23 -25 -26 -27 -28 -29 -30 -31
leaf_value=-3.722424259209236 -4.183978636415155 -1.3277925884415365 -3.8786928334543784 -0.98241789451576411 -0.037531368237621383 -0.90662726430721541 9.45888779277068 1.4825034808580155 4.4424399187634975 1.0214549760187293 -3.5962359926559859 -3.9891701330167026 0.10149724451408171 6.0399491655994471 -3.863031542664316 13.23534241400916 6.5951573888460802 4.7804711783450591 -3.708427628299928 0.57852440708417896 10.191006082580204 2.1647112097252501 -4.4453420635680079 2.2679484059277808 -3.3156297806202986 -3.4280148542461113 12.708644457030715 2.8942761754667439 6.8919450529243633 9.9013721081248516
leaf_weight=1322 111 58 31 1560 53 306 325 508 170 653 612 346 706 142 238 290 141 115 232 931 84 352 213 495 1582 335 114 814 138 57
leaf_count=1322 111 58 31 1560 53 306 325 508 170 653 612 346 706 142 238 290 141 115 232 931 84 352 213 495 1582 335 114 814 138 57
internal_value=1.21686e-09 1.18798 2.64016 -0.260547 4.61717 3.62617 4.12655 4.87901 5.88158 4.17432 -0.665211 -0.141631 0.290593 9.05504 0.276487 10.8702 2.01124 1.03771 -0.895104 1.21837 6.3983 -2.41382 -1.8327 0.248272 -2.48203 -0.562455 8.97846 1.5971 4.45957 5.11263
internal_weight=13034 8735 4362 4373 335 3078 2772 2229 1721 1119 4038 3426 3080 602 1284 432 794 543 347 1046 115 4299 2977 708 2269 687 224 1520 196 110
internal_count=13034 8735 4362 4373 335 3078 2772 2229 1721 1119 4038 3426 3080 602 1284 432 794 543 347 1046 115 4299 2977 708 2269 687 224 1520 196 110
is_linear=0
shrinkage=0.1


Tree=18
num_leaves=31
num_cat=0
split_feature=0 2 11 0 5 11 6 1 5 0 0 9 0 9 0 9 9 7 8 6 3 9 0 0 0 8 8 0 9 0
split_gain=3.03332e+06 1.8108e+06 1.3907e+06 928873 820009 476078 372594 330249 325496 315151 501029 894374 476445 449430 387653 924452 650707 580773 321675 294346 287873 281217 379197 393747 314211 240964 225400 217749 415477 322321
threshold=-0.45833333333333331 -0.55244876693296263 1.0000000180025095e-35 0.87500000000000011 -1.0000000180025095e-35 2.5000000000000004 -0.74999999999999989 1.1562500000000002 -1.0000000180025095e-35 -1.0000000180025095e-35 -0.20833333333333329 -1.0000000180025095e-35 0.62500000000000011 -1.0000000180025095e-35 0.37500000000000006 -1.0000000180025095e-35 -1.0000000180025095e-35 1.0000000180025095e-35 -0.62499999999999989 -0.24999999999999997 0.74999999999999989 -1.0000000180025095e-35 -0.20833333333333329 0.29166666666666669 0.54166666666666685 0.37500000000000006 0.37500000000000006 -0.20833333333333329 -1.0000000180025095e-35 -1.0000000180025095e-35
decision_type=2 2 2 2 2 2 2 2 2 2 2 2 2 2 2 2 2 2 2 2 2 2 2 2 2 2 2 2 2 2
left_child=-1 8 3 4 -3 19 -6 9 -2 10 11 -8 14 -12 15 17 -16 -11 -14 -4 21 -10 -23 -24 -25 -17 -18 28 -21 -29
right_child=1 2 5 -5 6 -7 7 -9 20 12 13 -13 18 -15 16 25 26 -19 -20 27 -22 22 23 24 -26 -27 -28 29 -30 -31
leaf_value=-2.3936143095330258 -2.8574596205773726 1.5829584415988271 -1.190952881801036 -3.0434577700152277 0.29674102157217014 -2.7623435036399488 -1.3886134779982029 -1.2301172493430583 -2.0408061441676373 12.224108627542336 5.3808146067049316 9.2139328924385282 -3.5489089772556768 -3.4923263589301743 3.1999197313562036 1.6717270524410583 13.168760152315272 -5.2530947117578419 4.0100211519592355 -4.6923437145623295 -4.9899973792839898 6.0713405310312911 -3.7495104131714401 10.011606576004809 0.59500678200274704 7.8754674329757695 6.3374831168377987 -3.1128220693818456 6.0312137965887489 1.6614160735599253
leaf_weight=3765 1099 2165 645 269 217 581 124 92 290 201 87 222 66 166 128 379 232 21 383 44 113 150 151 49 128 75 61 174 202 755
leaf_count=3765 1099 2165 645 269 217 581 124 92 290 201 87 222 66 166 128 379 232 21 383 44 113 150 151 49 128 75 61 174 202 755
internal_value=-1.30346e-08 0.972269 1.70075 2.66883 3.0015 -0.270098 4.25299 4.63677 -1.70949 4.8884 2.94108 5.41418 5.64289 -0.441088 6.766 5.28251 9.14805 10.5709 2.89891 0.525503 -0.277468 0.415913 1.90639 0.00168755 3.20186 2.69657 11.7465 1.46773 4.11318 0.76721
internal_weight=13034 9269 7289 4888 4619 2401 2454 2237 1980 2145 599 346 1546 253 1097 676 421 222 449 1820 881 768 478 328 177 454 293 1175 246 929
internal_count=13034 9269 7289 4888 4619 2401 2454 2237 1980 2145 599 346 1546 253 1097 676 421 222 449 1820 881 768 478 328 177 454 293 1175 246 929
is_linear=0
shrinkage=0.1


Tree=19
num_leaves=31
num_cat=0
split_feature=0 0 0 9 0 8 0 8 8 0 0 0 5 6 2 8 1 10 0 3 1 11 8 1 0 0 0 9 9 0
split_gain=2.52317e+06 1.36502e+06 1.25625e+06 2.38223e+06 1.57508e+06 883558 1.25863e+06 1.33344e+06 1.16663e+06 556809 534919 505790 468168 407452 398906 394245 343371 337091 298082 298027 292842 287306 277669 258093 254461 233920 220041 367862 288951 403930
threshold=-0.37499999999999994 0.70833333333333337 0.37500000000000006 -1.0000000180025095e-35 0.54166666666666685 0.37500000000000006 -0.29166666666666657 -0.62499999999999989 -0.62499999999999989 -0.20833333333333329 -1.0000000180025095e-35 -0.12499999999999999 -1.0000000180025095e-35 -0.24999999999999997 0.44755123306703731 -0.37499999999999994 1.0000000180025095e-35 1.5000000000000002 -1.0000000180025095e-35 0.78333333333333333 0.46874999999999994 2.5000000000000004 0.37500000000000006 -0.21875000000000008 0.87500000000000011 0.45833333333333343 -0.54166666666666663 -1.0000000180025095e-35 -1.0000000180025095e-35 -0.79166666666666663
decision_type=2 2 2 2 2 2 2 2 2 2 2 2 2 2 2 2 2 2 2 2 2 2 2 2 2 2 2 2 2 2
left_child=23 2 5 16 13 6 8 11 -2 -9 -11 -8 21 -5 -12 -3 -4 -14 -19 22 -6 -7 -15 -1 -17 -18 28 -28 29 -25
right_child=1 15 3 4 20 12 7 9 -10 10 14 -13 17 19 -16 24 25 18 -20 -21 -22 -23 -24 26 -26 -27 27 -29 -30 -31
leaf_value=-2.8147750491770012 -5.9218907139018961 -4.0443377974148325 -3.6442289359140689 6.2754077769572447 1.2586616838771607 1.6119570520587816 -1.5637667031879678 2.1212479209344761 7.8817253934390967 -4.9583777173038071 -2.8413290138080516 4.847482509326098 2.5475831993426277 13.197440227220774 0.3774662782689584 0.40659118430339736 5.0292608143128072 3.6939214717957287 9.6612706431648245 2.1799001625605992 5.5400703508358502 -5.4748759394600279 6.8695868508199629 2.9672172217640638 -2.7380723673743588 -0.72809775671903698 -3.6716569207852183 2.1058757499957146 -2.6200895787859424 -2.708905880441391
leaf_weight=1998 76 477 328 306 518 622 165 306 315 606 898 484 371 314 674 780 97 155 182 35 231 63 89 259 384 259 153 394 1252 243
leaf_count=1998 76 477 328 306 518 622 165 306 315 606 898 484 371 314 674 780 97 155 182 35 231 63 89 259 384 259 153 394 1252 243
internal_value=-1.29493e-09 0.976082 1.57732 3.57724 5.81628 0.691854 -0.150947 -0.818582 5.19867 -1.8731 -2.43429 3.2175 2.82396 9.07522 -1.46126 -1.62305 -1.31001 4.62721 6.91664 11.0312 2.5791 0.960175 11.8 -1.98327 -0.630824 0.840621 -1.26126 0.489857 -1.80736 0.219612
internal_weight=13034 8735 7094 2177 1493 4917 3524 3133 391 2484 2178 649 1393 744 1572 1641 684 708 337 438 749 685 403 4299 1164 356 2301 547 1754 502
internal_count=13034 8735 7094 2177 1493 4917 3524 3133 391 2484 2178 649 1393 744 1572 1641 684 708 337 438 749 685 403 4299 1164 356 2301 547 1754 502
is_linear=0
shrinkage=0.1


Tree=20
num_leaves=31
num_cat=0
split_feature=0 5 11 6 0 1 6 0 0 9 0 9 3 8 2 0 9 9 0 6 0 0 0 9 9 0 9 0 11 10
split_gain=2.04376e+06 1.21653e+06 887101 757110 583159 446629 398590 370708 707755 758082 363928 614307 274500 258178 244353 242426 639921 607718 232476 231785 219990 200775 207367 287719 235281 195756 515012 254995 227963 191341
threshold=-0.37499999999999994 -1.0000000180025095e-35 2.5000000000000004 -0.41666666666666657 0.79166666666666685 0.093750000000000056 0.25000000000000006 0.62500000000000011 0.37500000000000006 -1.0000000180025095e-35 -0.29166666666666657 -1.0000000180025095e-35 -0.48333333333333323 -1.0000000180025095e-35 1.1842653699201113 -0.29166666666666657 -1.0000000180025095e-35 -1.0000000180025095e-35 0.29166666666666669 -0.41666666666666657 0.54166666666666685 -1.0000000180025095e-35 -0.20833333333333329 -1.0000000180025095e-35 -1.0000000180025095e-35 -0.54166666666666663 -1.0000000180025095e-35 -0.95833333333333315 2.5000000000000004 1.5000000000000002
decision_type=2 2 2 2 2 2 2 2 2 2 2 2 2 2 2 2 2 2 2 2 2 2 2 2 2 2 2 2 2 2
left_child=19 3 4 -2 5 10 14 8 15 -10 11 -3 -8 -6 18 16 -5 -17 -7 -1 -11 22 24 -24 -12 27 -27 -21 -28 -23
right_child=1 2 -4 7 13 6 12 -9 9 20 21 -13 -14 -15 -16 17 -18 -19 -20 25 -22 29 23 -25 -26 26 28 -29 -30 -31
leaf_value=-2.8483141216060273 -2.2127489417145791 -2.2042678553807109 -3.1017084768919219 -5.4724961922385482 -3.5618501607908977 2.165399016868768 9.7801132370125163 -1.3463422085707639 -1.0752510220151057 8.5759062363928749 -3.4016016679651599 10.648165961292303 4.6711150833861579 1.1088580199300428 -4.2962067523667979 2.7679936274279875 7.3518385695783728 -1.5971145294695559 4.7525047515258656 0.71837103529833257 3.4583538038863075 0.56541453981162793 2.5005856943443234 -4.7144292135348271 4.8520212095474529 -3.7989582192713183 2.6640457872531038 -2.2193169972244347 -4.6581200517238459 3.1963091417293921
leaf_weight=1388 1408 57 310 55 199 754 165 731 176 252 51 107 290 292 43 467 133 1006 644 352 126 535 81 174 107 226 446 1840 47 572
leaf_count=1388 1408 57 310 55 199 754 165 731 176 252 51 107 290 292 43 467 133 1006 644 352 126 535 81 174 107 226 446 1840 47 572
internal_value=-2.91252e-09 0.878474 2.05496 -0.305312 2.44764 2.89088 3.94353 0.606322 1.25074 4.34591 1.70571 6.18116 6.52383 -0.784158 3.12879 0.2184 3.60004 -0.2132 3.35717 -1.78494 6.87006 1.22283 -0.658786 -2.4226 2.18788 -1.27791 0.15392 -1.74757 1.96599 1.92483
internal_weight=13034 8735 4381 4354 4071 3580 1896 2946 2215 554 1684 164 455 491 1441 1661 188 1473 1398 4299 378 1520 413 255 158 2911 719 2192 493 1107
internal_count=13034 8735 4381 4354 4071 3580 1896 2946 2215 554 1684 164 455 491 1441 1661 188 1473 1398 4299 378 1520 413 255 158 2911 719 2192 493 1107
is_linear=0
shrinkage=0.1


Tree=21
num_leaves=31
num_cat=0
split_feature=0 3 1 0 5 6 6 0 9 5 0 6 3 0 0 9 0 0 11 5 0 9 4 1 9 0 9 6 0 9
split_gain=1.65545e+06 1.09993e+06 911944 603815 567400 418755 246900 239373 355655 229288 228855 243582 296022 227688 447778 307622 617379 288932 226121 221858 215492 407323 213008 212820 196655 180205 326695 179465 178398 176369
threshold=-0.37499999999999994 0.68333333333333324 -0.46875000000000006 0.87500000000000011 -1.0000000180025095e-35 1.0000000180025095e-35 -0.58333333333333315 -0.29166666666666657 -1.0000000180025095e-35 -1.0000000180025095e-35 -1.0000000180025095e-35 0.58333333333333337 0.11666666666666677 0.29166666666666669 0.54166666666666685 -1.0000000180025095e-35 -0.29166666666666657 -0.20833333333333329 1.0000000180025095e-35 -1.0000000180025095e-35 -0.54166666666666663 -1.0000000180025095e-35 1.0000000180025095e-35 1.1562500000000002 -1.0000000180025095e-35 -0.29166666666666657 -1.0000000180025095e-35 -0.74999999999999989 -0.20833333333333329 -1.0000000180025095e-35
decision_type=2 2 2 2 2 2 2 2 2 2 2 2 2 2 2 2 2 2 2 2 2 2 2 2 2 2 2 2 2 2
left_child=19 2 9 4 6 18 -4 8 -7 -2 -9 12 -12 15 -15 17 -17 -8 23 -1 -21 -22 28 27 -14 26 -11 -6 29 -3
right_child=1 22 3 -5 5 7 13 10 -10 25 11 -13 24 14 -16 16 -18 -19 -20 20 21 -23 -24 -25 -26 -27 -28 -29 -30 -31
leaf_value=-2.3266684345345001 -1.8556011382788267 -3.7859297275543216 -2.0814575476011608 -2.5953989266066362 -0.10695502041392245 -0.77633645027875908 -3.0965456944622409 1.2201926270743464 15.306513075395063 -4.0169844303812301 6.7577190621814012 1.9812157866081248 -3.005800744780788 4.4094106161261371 0.44081408510395853 7.0220120466204099 -1.5823539483498279 3.8408908590211497 -0.088509731913606338 -1.4595633916185911 -3.2003657443182814 2.7628519741652742 -4.5463023361669954 -2.4649983554701262 4.2997271813709164 -0.082325094737072682 9.2123451020036438 3.360057620557555 -2.3221433195318761 4.1054915696075289
leaf_weight=2144 963 40 246 302 173 20 73 237 44 28 546 247 54 528 616 93 807 338 420 1627 168 360 326 79 116 748 56 1090 448 97
leaf_count=2144 963 40 246 302 173 20 73 237 44 28 546 247 54 528 616 93 807 338 420 1627 168 360 326 79 116 748 56 1090 448 97
internal_value=6.14857e-09 0.790626 1.17354 1.76262 1.99243 2.93282 0.938887 4.32174 10.2806 -0.805074 4.00393 4.68902 5.62314 1.24154 2.27247 0.341923 -0.693236 2.60869 1.93646 -1.60645 -0.889905 0.865465 -2.49794 2.57021 1.97915 0.410861 4.80257 2.88516 -1.35645 1.80143
internal_weight=13034 8735 7824 6029 5727 3026 2701 1264 64 1795 1200 963 716 2455 1144 1311 900 411 1762 4299 2155 528 911 1342 170 832 84 1263 585 137
internal_count=13034 8735 7824 6029 5727 3026 2701 1264 64 1795 1200 963 716 2455 1144 1311 900 411 1762 4299 2155 528 911 1342 170 832 84 1263 585 137
is_linear=0
shrinkage=0.1


Tree=22
num_leaves=31
num_cat=0
split_feature=0 11 0 0 9 8 0 8 9 0 0 8 0 0 0 10 6 6 1 6 8 2 10 0 0 9 9 0 11 5
split_gain=1.34091e+06 900995 839146 1.33775e+06 1.49474e+06 757397 785819 897768 790175 563570 404048 393435 385344 373848 346087 331693 271381 250743 249594 237461 207828 198115 180840 168846 163945 309396 246686 353445 202023 178707
threshold=-0.37499999999999994 2.5000000000000004 0.62500000000000011 0.37500000000000006 -1.0000000180025095e-35 0.37500000000000006 -0.29166666666666657 -0.62499999999999989 -1.0000000180025095e-35 0.54166666666666685 -0.20833333333333329 -0.37499999999999994 -0.12499999999999999 -1.0000000180025095e-35 -1.0000000180025095e-35 1.5000000000000002 1.0000000180025095e-35 0.58333333333333337 -0.34374999999999983 -0.41666666666666657 0.62500000000000011 -0.55244876693296263 2.5000000000000004 0.45833333333333343 -0.54166666666666663 -1.0000000180025095e-35 -1.0000000180025095e-35 -0.79166666666666663 2.5000000000000004 -1.0000000180025095e-35
decision_type=2 2 2 2 2 2 2 2 2 2 2 2 2 2 2 2 2 2 2 2 2 2 2 2 2 2 2 2 2 2
left_child=21 2 3 5 17 6 8 12 -2 16 -9 -4 -8 -12 -7 -16 -6 23 -13 -15 -17 -1 -10 -5 26 -26 27 -23 29 -27
right_child=1 -3 11 4 9 14 7 10 22 -11 13 18 -14 19 15 20 -18 -19 -20 -21 -22 24 -24 -25 25 28 -28 -29 -30 -31
leaf_value=-2.4645093984156565 -3.8566619148308585 -2.6642391849509601 -2.9725308108996682 3.6953388540281189 6.3810377592854692 0.98890659582232032 -1.4003246910042233 2.0289301778285953 5.5367784847766162 3.1071473275954804 -4.2070057338534514 -1.7049252367143322 4.2823804420022249 -2.9965054112307365 2.2158880127362304 3.966239128449212 10.481132423706192 -5.1149222527185216 1.0815163400461165 -0.25807073183342161 8.9151679880538222 2.3870645741297101 11.474003078108248 -0.78803710247138659 -2.8517200846207533 0.40480982685520639 -2.0950755125906571 -2.1507353302791938 -4.0668850945101847 4.4308921962163668
leaf_weight=1322 88 725 572 126 385 576 162 281 200 343 562 488 453 473 370 163 278 92 942 958 177 352 69 252 213 221 1582 335 54 220
leaf_count=1322 88 725 572 126 385 576 162 281 200 343 562 488 453 473 370 163 278 92 942 958 177 352 69 252 213 221 1582 335 54 220
internal_value=2.40045e-09 0.711564 1.01711 1.60795 4.22267 0.756382 -0.0573152 -0.604265 4.36884 6.39782 -1.52101 -0.755995 2.78547 -2.02153 2.81024 4.28783 8.10023 -0.433076 0.130619 -1.16323 6.54259 -1.4458 7.05971 0.706422 -0.993426 0.335072 -1.40796 0.174309 1.70636 2.41329
internal_weight=13034 8735 8010 6008 1476 4532 3246 2889 357 1006 2274 2002 615 1993 1286 710 663 470 1430 1431 340 4299 269 378 2977 708 2269 687 495 441
internal_count=13034 8735 8010 6008 1476 4532 3246 2889 357 1006 2274 2002 615 1993 1286 710 663 470 1430 1431 340 4299 269 378 2977 708 2269 687 495 441
is_linear=0
shrinkage=0.1


Tree=23
num_leaves=31
num_cat=0
split_feature=2 3 0 0 0 9 9 0 8 11 0 1 7 0 9 6 8 0 8 6 2 3 6 0 6 1 5 6 0 9
split_gain=1.12225e+06 1.00936e+06 721327 411956 574428 1.00177e+06 729289 390239 360272 321442 306351 303952 357488 289554 615386 251158 238782 231097 201113 184878 213551 180807 175197 155998 153617 140897 135053 130022 129251 161832
threshold=-0.60507120527961078 0.11666666666666677 -1.0000000180025095e-35 0.62500000000000011 0.37500000000000006 -1.0000000180025095e-35 -1.0000000180025095e-35 0.45833333333333343 0.37500000000000006 2.5000000000000004 -0.54166666666666663 1.0312500000000002 1.0000000180025095e-35 -0.20833333333333329 -1.0000000180025095e-35 -0.58333333333333315 0.37500000000000006 -0.45833333333333331 -0.62499999999999989 0.58333333333333337 0.86853073984022255 -0.41666666666666657 0.25000000000000006 0.45833333333333343 -0.41666666666666657 -0.78124999999999989 -1.0000000180025095e-35 0.58333333333333337 -1.0000000180025095e-35 -1.0000000180025095e-35
decision_type=2 2 2 2 2 2 2 2 2 2 2 2 2 2 2 2 2 2 2 2 2 2 2 2 2 2 2 2 2 2
left_child=25 2 -2 4 5 11 19 22 -9 10 -3 12 21 14 -12 -7 -17 -16 -5 20 23 -4 -8 -6 -20 -1 -19 -24 29 -15
right_child=1 9 3 18 6 15 7 8 -10 -11 13 -13 -14 28 17 16 -18 26 24 -21 -22 -23 27 -25 -26 -27 -28 -29 -30 -31
leaf_value=-2.4201976060037964 -0.31812024840582287 -1.3483429869705612 8.0840072129117821 -4.0859250477653868 6.5925683345550148 -2.7403529203087715 7.8042531153827754 6.0814948905567157 -0.86022674610740268 -2.5767053878255961 -2.0256198724548162 -1.4040498263779142 -2.7866902129594671 1.1090237419546387 0.57842833054778375 0.091595423627516326 3.7659071994324531 3.0054757920190762 -1.3407361160350753 -4.6011487305164342 -4.7679341713587444 3.9470887940305817 17.214318266369048 0.96749971728049111 1.68625392172011 -1.0039471784549658 6.4525788943991707 8.9616344070434568 0.0014674053433842201 -4.3825500415930962
leaf_weight=1516 1693 1545 323 94 78 239 189 351 95 696 284 63 43 81 184 870 222 221 237 56 42 157 42 134 573 1309 234 35 1269 159
leaf_count=1516 1693 1545 323 94 78 239 189 351 95 696 284 63 43 81 184 870 222 221 237 56 42 157 42 134 573 1309 234 35 1269 159
internal_value=1.52568e-09 0.488117 1.40167 2.1593 2.73352 1.71274 4.64823 6.41088 4.60288 -0.594145 -0.247185 5.15793 5.94837 0.452359 1.84753 0.195924 0.838571 3.56893 0.292469 0.599831 1.7465 6.73089 9.44234 3.0371 0.800579 -1.76396 4.77827 13.4631 -0.401016 -2.52914
internal_weight=13034 10209 5536 3843 2939 1917 1022 712 446 4673 3977 586 523 2432 923 1331 1092 639 904 310 254 480 266 212 810 2825 455 77 1509 240
internal_count=13034 10209 5536 3843 2939 1917 1022 712 446 4673 3977 586 523 2432 923 1331 1092 639 904 310 254 480 266 212 810 2825 455 77 1509 240
is_linear=0
shrinkage=0.1


Tree=24
num_leaves=31
num_cat=0
split_feature=1 3 0 2 6 6 3 2 0 0 9 0 7 0 0 9 8 0 5 10 9 3 6 5 0 9 0 6 8 0
split_gain=921286 871252 557642 358144 427363 284841 262794 261341 398017 281266 319293 279194 210586 167116 253279 369660 161998 198498 144332 140122 135232 134312 131888 154142 125137 249043 242580 162967 153169 120423
threshold=-0.53125 0.11666666666666677 -1.0000000180025095e-35 1.1316429315734633 -0.41666666666666657 0.58333333333333337 0.68333333333333324 0.71066342480027822 0.62500000000000011 0.37500000000000006 -1.0000000180025095e-35 0.45833333333333343 1.0000000180025095e-35 -0.54166666666666663 -0.20833333333333329 -1.0000000180025095e-35 0.62500000000000011 0.45833333333333343 -1.0000000180025095e-35 2.5000000000000004 -1.0000000180025095e-35 -0.28333333333333316 0.75000000000000011 -1.0000000180025095e-35 0.29166666666666669 -1.0000000180025095e-35 0.54166666666666685 0.25000000000000006 -0.62499999999999989 -0.20833333333333329
decision_type=2 2 2 2 2 2 2 2 2 2 2 2 2 2 2 2 2 2 2 2 2 2 2 2 2 2 2 2 2 2
left_child=19 2 29 4 16 7 13 8 9 10 21 -11 -7 -3 15 -15 -4 -18 -17 22 -13 -6 23 -1 25 -16 27 -26 -28 -2
right_child=1 6 3 -5 5 12 -8 -9 -10 11 -12 20 -14 14 24 18 17 -19 -20 -21 -22 -23 -24 -25 26 -27 28 -29 -30 -31
leaf_value=-2.35372049010748 0.4088146623665308 -1.0882350372436951 -0.040293435765786118 -3.2030081936158243 8.914320870077276 1.2325368183851244 -1.5906913245555445 1.8106072364048444 1.5086416903123334 11.192582852526229 2.4741692479763495 1.6410936023273015 -7.5426053770657253 -1.3911411990209954 1.7156042001700005 1.9279101488114609 6.7907821384477032 -1.1733265117979517 5.6454841119907293 -0.38279025051651933 6.9404199393590291 2.8931143324375155 -3.9396671902494775 -0.57002666555934933 0.9321694732731225 -3.2095800592551953 -3.6194195941925056 6.5237438986196796 0.25084500346147187 -1.3893609129866527
leaf_weight=1182 1089 943 890 128 143 480 1592 713 402 129 439 68 29 194 154 198 81 51 221 820 165 50 280 821 117 308 125 94 562 566
leaf_count=1182 1089 943 890 128 143 480 1592 713 402 129 439 68 29 194 154 198 81 51 221 820 165 50 280 821 117 308 125 94 562 566
internal_value=-2.06636e-10 0.469951 1.32393 1.99598 2.1788 2.8558 -0.557363 3.36824 4.16379 5.2376 3.9645 7.46024 0.732578 0.00678558 0.530153 2.21778 0.444572 3.71374 3.88873 -1.50406 5.39384 7.35442 -1.90679 -1.62261 -0.230518 -1.56785 0.457509 3.4232 -0.453352 -0.206151
internal_weight=13034 9931 5423 3768 3640 2618 4508 2109 1396 994 632 362 509 2916 1973 613 1022 132 419 3103 233 193 2283 2003 1360 462 898 211 687 1655
internal_count=13034 9931 5423 3768 3640 2618 4508 2109 1396 994 632 362 509 2916 1973 613 1022 132 419 3103 233 193 2283 2003 1360 462 898 211 687 1655
is_linear=0
shrinkage=0.1


Tree=25
num_leaves=31
num_cat=0
split_feature=5 0 11 6 0 1 0 0 11 6 7 0 1 1 11 9 10 8 4 3 6 1 3 8 6 3 0 9 2 8
split_gain=828226 653940 505398 400266 318173 285809 238879 211026 196003 164614 180182 156805 151151 146508 169641 143043 140765 137895 123630 118581 110565 143228 109626 107132 106181 105439 100374 100193 98224.1 97457.5
threshold=-1.0000000180025095e-35 -0.54166666666666663 2.5000000000000004 -0.41666666666666657 0.87500000000000011 -0.71874999999999989 -0.37499999999999994 0.87500000000000011 1.0000000180025095e-35 1.0000000180025095e-35 1.0000000180025095e-35 -0.95833333333333315 1.1562500000000002 1.2187500000000002 1.0000000180025095e-35 -1.0000000180025095e-35 2.5000000000000004 -0.37499999999999994 1.2007372654155504 -0.48333333333333323 -0.74999999999999989 -0.21875000000000008 0.18333333333333332 1.0000000180025095e-35 0.58333333333333337 0.9833333333333335 -1.0000000180025095e-35 -1.0000000180025095e-35 -0.4472038902396665 -1.0000000180025095e-35
decision_type=2 2 2 2 2 2 2 2 2 2 2 2 2 2 2 2 2 2 2 2 2 2 2 2 2 2 2 2 2 2
left_child=3 11 4 -1 5 15 -5 13 9 12 17 27 20 14 28 -3 22 19 25 -11 21 -7 -4 -6 -19 -16 -22 -2 -8 -10
right_child=1 2 16 6 23 8 7 -9 29 10 -12 -13 -14 -15 18 -17 -18 24 -20 -21 26 -23 -24 -25 -26 -27 -28 -29 -30 -31
leaf_value=-1.937672188117346 3.8449678306778274 -2.5252347816100076 1.4370293770517621 -1.3051754554292885 -3.9314093507766721 1.5927965539947468 -0.78594069314315329 -3.0288051841037524 -0.18639743687718349 4.1515166261233389 -3.6879852055188489 -1.3834601977564933 -2.3419553161421911 -4.4098563675085707 0.35467172162403376 1.0253166817213326 1.7926340569468107 5.1283593931563303 -4.0688430377857747 0.11657066378720414 1.2980205150168451 -3.6185105094138317 -4.1009435903529328 0.33731771808889538 2.6620025942368168 -2.7319179226729005 3.178001128746645 -0.16718387098635656 1.431194933505767 1.7694108008322802
leaf_weight=2094 96 199 42 1458 125 235 229 183 433 128 34 1354 79 60 685 264 68 568 89 169 427 68 240 111 252 132 848 177 1568 619
leaf_count=2094 96 199 42 1458 125 235 229 183 433 128 34 1354 79 60 685 264 68 568 89 169 427 68 240 111 252 132 848 177 1568 619
internal_value=-2.20711e-09 0.794821 1.37067 -0.799469 1.65181 1.847 -0.25828 0.259837 2.12861 2.56477 3.48344 -0.942643 1.92663 0.477652 0.586142 -0.50073 -2.29135 3.70173 -0.52957 1.85554 2.14033 0.423262 -3.27614 -1.92366 4.37041 -0.144018 2.54839 1.24368 1.14866 0.964406
internal_weight=13034 6536 4909 6498 4559 4323 4404 2946 3860 2808 1151 1627 1657 2763 2703 463 350 1117 906 297 1578 303 282 236 820 817 1275 273 1797 1052
internal_count=13034 6536 4909 6498 4559 4323 4404 2946 3860 2808 1151 1627 1657 2763 2703 463 350 1117 906 297 1578 303 282 236 820 817 1275 273 1797 1052
is_linear=0
shrinkage=0.1


Tree=26
num_leaves=31
num_cat=0
split_feature=5 0 11 6 0 1 3 2 0 0 9 0 9 9 0 1 0 9 0 1 9 0 7 0 8 10 8 1 6 10
split_gain=670863 529692 409372 324215 257720 234757 205893 163070 160898 590846 378902 239652 934614 562036 211461 197893 171051 424916 157169 146276 137035 232599 133694 129807 121960 114020 112209 111989 108258 100422
threshold=-1.0000000180025095e-35 -0.54166666666666663 2.5000000000000004 -0.41666666666666657 0.87500000000000011 -0.78124999999999989 -0.24999999999999981 1.0263980548801672 0.29166666666666669 0.54166666666666685 -1.0000000180025095e-35 -0.20833333333333329 -1.0000000180025095e-35 -1.0000000180025095e-35 -0.12499999999999999 -0.15625000000000003 0.37500000000000006 -1.0000000180025095e-35 -0.45833333333333331 0.96875000000000022 -1.0000000180025095e-35 -0.79166666666666663 1.0000000180025095e-35 -1.0000000180025095e-35 0.37500000000000006 2.5000000000000004 0.37500000000000006 1.0312500000000002 -0.24999999999999997 1.0000000180025095e-35
decision_type=2 2 2 2 2 2 2 2 2 2 2 2 2 2 2 2 2 2 2 2 2 2 2 2 2 2 2 2 2 2
left_child=3 20 4 -1 5 -3 7 23 11 16 -11 13 19 -7 -14 -16 26 -18 -15 22 21 -2 -13 -5 -17 29 -10 -19 -12 -4
right_child=1 2 25 6 -6 8 -8 -9 9 10 28 12 14 18 15 24 17 27 -20 -21 -22 -23 -24 -25 -26 -27 -28 -29 -30 -31
leaf_value=-1.7439049525117039 2.5816782851579525 -0.90105567478772375 0.30460540022648558 -0.58841659028690085 -1.7312945615184512 -1.1632758159958223 -0.67470536648680124 -2.9149606058530719 1.3498531715923481 -2.0320682494280238 0.76055429183384948 5.4292941860170192 -4.5363092974333039 1.4428788773277228 -2.8252041169198661 -0.20659187371276089 1.3693669836004299 8.4253969987036772 5.3282907841106262 -1.0058511325019472 -1.4791551095597884 -1.6402577198150077 -0.94614443514082169 1.783067707301661 3.4545449675459952 1.6133706639794743 6.2044114494323734 1.3290497859319053 3.343777220414498 -4.0431805541447554
leaf_weight=2094 263 330 71 313 236 262 3105 107 178 288 272 381 155 136 260 485 143 303 444 47 1105 259 36 879 112 68 65 24 402 211
leaf_count=2094 263 330 71 313 236 262 3105 107 178 288 272 381 155 136 260 485 143 303 444 47 1105 259 36 879 112 68 65 24 402 211
internal_value=-2.78451e-10 0.715339 1.23361 -0.719522 1.48663 1.6623 -0.232452 0.824666 1.87415 2.6209 1.00398 1.33454 0.566569 2.68078 -1.13732 -0.522568 4.80249 5.9162 4.41723 4.28281 -0.848378 0.486886 4.8789 1.16035 0.480255 -2.06221 2.6484 7.90456 2.30129 -2.94853
internal_weight=13034 6536 4909 6498 4559 4323 4404 1299 3993 1675 962 2318 1476 842 1012 857 713 470 580 464 1627 522 417 1192 597 350 243 327 674 282
internal_count=13034 6536 4909 6498 4559 4323 4404 1299 3993 1675 962 2318 1476 842 1012 857 713 470 580 464 1627 522 417 1192 597 350 243 327 674 282
is_linear=0
shrinkage=0.1


Tree=27
num_leaves=31
num_cat=0
split_feature=0 0 11 5 4 8 3 0 0 0 6 0 9 8 0 8 0 6 9 1 9 8 9 0 8 0 0 2 1 0
split_gain=576482 511658 465522 290765 208880 171106 164165 169187 175792 247335 157593 154989 305663 302705 318048 312289 295189 171173 151682 150181 149592 148602 145964 152369 144656 142810 142552 134083 138081 125714
threshold=-0.37499999999999994 0.79166666666666685 1.0000000180025095e-35 -1.0000000180025095e-35 1.6008713136729231 1.0000000180025095e-35 0.74999999999999989 -0.29166666666666657 0.29166666666666669 0.54166666666666685 -0.74999999999999989 0.29166666666666669 -1.0000000180025095e-35 0.62500000000000011 -0.29166666666666657 -0.62499999999999989 0.45833333333333343 -0.24999999999999997 -1.0000000180025095e-35 1.0937500000000002 -1.0000000180025095e-35 0.37500000000000006 -1.0000000180025095e-35 0.37500000000000006 -0.62499999999999989 -0.20833333333333329 -0.20833333333333329 0.8159083014935743 -0.093750000000000028 -0.12499999999999999
decision_type=2 2 2 2 2 2 2 2 2 2 2 2 2 2 2 2 2 2 2 2 2 2 2 2 2 2 2 2 2 2
left_child=-1 2 3 10 6 -3 7 18 20 22 -2 13 16 14 15 -5 27 -14 -4 -12 -9 -19 -10 -24 -16 -26 -22 28 -13 -27
right_child=1 5 4 11 -6 -7 -8 8 9 -11 19 12 17 -15 24 -17 -18 21 -20 -21 26 -23 23 -25 25 29 -28 -29 -30 -31
leaf_value=-0.94798521741793162 -1.3751115225455242 -2.6676277555948356 -2.9007475047111515 -3.9340212090810143 -4.4363575586323014 -0.14266092817310758 -1.5780399884098451 1.3925003446267483 0.17048715964607572 -0.68964465240904249 1.0823686337272747 1.3101800261437893 2.2660794336990286 4.7544719470916572 2.5121225685170554 7.5328932037478999 -1.6457692420288272 6.1069223451708998 5.883323491850625 -2.6055413952176898 1.9579698127455416 1.5855798513359494 0.84311778047416785 6.1532742655068118 2.8034898179209131 -4.0263352052300379 -1.8588392062692851 -2.6950566750358451 8.8226917713407484 -0.40011142493014173
leaf_weight=4299 366 612 25 30 118 478 597 261 115 320 1964 40 331 222 206 114 230 378 92 117 113 90 79 171 117 113 730 22 63 621
leaf_count=4299 366 612 25 30 118 478 597 261 115 320 1964 40 331 222 206 114 230 378 92 117 113 90 79 171 117 113 730 22 63 621
internal_value=-2.7935e-09 0.466558 0.755549 1.31917 -0.324821 -1.56035 -0.130989 0.322258 0.0813172 1.33976 0.538469 2.06049 2.92167 1.36211 0.735046 5.14395 0.480052 4.0065 4.00639 0.875023 -0.69951 5.23743 3.11897 4.47526 0.1344 -0.441171 -1.34721 4.39156 5.90521 -0.958372
internal_weight=13034 8735 7645 5024 2621 1090 2503 1906 1789 685 2447 2577 1154 1423 1201 144 355 799 117 2081 1104 468 365 250 1057 851 843 125 103 734
internal_count=13034 8735 7645 5024 2621 1090 2503 1906 1789 685 2447 2577 1154 1423 1201 144 355 799 117 2081 1104 468 365 250 1057 851 843 125 103 734
is_linear=0
shrinkage=0.1


Tree=28
num_leaves=31
num_cat=0
split_feature=2 3 0 0 0 9 9 8 1 7 8 11 0 9 0 0 0 0 6 4 0 9 0 9 6 2 1 3 8 0
split_gain=522193 421549 279291 221815 462942 615995 310421 205570 200283 227550 187790 171243 188630 204638 228711 223323 152805 264915 134712 114703 108877 265097 136095 140741 104794 103366 131979 101029 100485 106249
threshold=-0.60507120527961078 -1.0000000180025095e-35 -1.0000000180025095e-35 0.54166666666666685 0.37500000000000006 -1.0000000180025095e-35 -1.0000000180025095e-35 -0.62499999999999989 0.90625000000000033 1.0000000180025095e-35 0.37500000000000006 1.0000000180025095e-35 -0.54166666666666663 -1.0000000180025095e-35 -0.29166666666666657 -0.45833333333333331 0.37500000000000006 0.62500000000000011 0.25000000000000006 0.50033512064343189 -0.20833333333333329 -1.0000000180025095e-35 -0.37499999999999994 -1.0000000180025095e-35 -0.58333333333333315 0.86853073984022255 0.093750000000000056 0.91666666666666663 0.37500000000000006 0.45833333333333343
decision_type=2 2 2 2 2 2 2 2 2 2 2 2 2 2 2 2 2 2 2 2 2 2 2 2 2 2 2 2 2 2
left_child=-1 2 20 4 5 8 25 -5 9 -4 24 12 -3 -14 15 -15 -16 -18 28 27 22 -22 -2 -24 -7 26 -6 -13 -8 -30
right_child=1 11 3 7 6 10 18 -9 -10 -11 -12 19 13 14 16 -17 17 -19 -20 -21 21 -23 23 -25 -26 -27 -28 -29 29 -31
leaf_value=-1.2032585281423764 -0.37388438243475858 -0.71852610269706174 5.6463374049152222 -3.7207296442112021 -1.0036272156238557 -2.9056413374712013 5.5343750020564713 0.74459818782428311 0.26028434129660594 -2.9983102184353454 2.3213487522270451 -0.18009675431882996 -0.59227798675013854 0.75502910893410446 -1.3831108646500592 6.1418847234022129 5.7775932969585542 0.49658285502316846 8.5392988831543732 -2.2767113525553753 1.9909963972249607 -2.9840951274870413 -1.1677278911456084 3.9178004765179426 -0.20203911088843218 -4.1126362107016829 4.5090791507771142 -1.8651445602757666 4.8122698196998011 -2.9624479001387956
leaf_weight=2825 589 1158 394 116 80 173 271 927 114 33 266 1607 565 128 224 193 124 406 121 475 157 337 78 180 837 33 95 457 39 32
leaf_count=2825 589 1158 394 116 80 173 271 927 114 33 266 1607 565 128 224 193 124 406 121 475 157 337 78 180 837 33 95 457 39 32
internal_value=-2.27613e-09 0.332962 1.00552 1.47211 1.98528 1.15635 4.22996 0.247975 3.98408 4.97825 -0.0425579 -0.280995 0.258597 0.948541 1.75837 3.99386 0.806654 1.73214 5.6716 -0.87563 -0.22308 -1.40294 0.465057 2.38032 -0.665131 1.02094 1.98898 -0.553191 4.65701 1.30817
internal_weight=13034 10209 4872 3531 2488 1817 671 1043 541 427 1276 5337 2798 1640 1075 321 754 530 463 2539 1341 494 847 258 1010 208 175 2064 342 71
internal_count=13034 10209 4872 3531 2488 1817 671 1043 541 427 1276 5337 2798 1640 1075 321 754 530 463 2539 1341 494 847 258 1010 208 175 2064 342 71
is_linear=0
shrinkage=0.1


Tree=29
num_leaves=31
num_cat=0
split_feature=5 0 11 6 8 0 0 7 6 2 6 3 0 0 0 9 9 0 0 9 0 8 3 0 3 4 10 8 10 10
split_gain=476515 308122 271999 217017 190688 166822 156960 147923 167662 205887 184227 160800 128003 179937 189674 367396 202704 119598 118804 149371 108356 131563 104252 99156.7 94491.1 102201 91841 85202.3 72600.1 72148.7
threshold=-1.0000000180025095e-35 -0.54166666666666663 2.5000000000000004 -0.41666666666666657 -0.37499999999999994 0.62500000000000011 -1.0000000180025095e-35 1.0000000180025095e-35 -0.24999999999999997 0.86853073984022255 0.58333333333333337 -0.31666666666666649 -1.0000000180025095e-35 0.62500000000000011 0.37500000000000006 -1.0000000180025095e-35 -1.0000000180025095e-35 0.29166666666666669 -0.87499999999999989 -1.0000000180025095e-35 -0.20833333333333329 0.37500000000000006 0.34999999999999992 0.45833333333333343 0.15000000000000016 0.50033512064343189 2.5000000000000004 0.37500000000000006 1.5000000000000002 2.5000000000000004
decision_type=2 2 2 2 2 2 2 2 2 2 2 2 2 2 2 2 2 2 2 2 2 2 2 2 2 2 2 2 2 2
left_child=3 18 4 -1 5 6 -3 8 -6 10 11 17 -5 14 16 -16 28 27 19 -2 21 -13 -18 -17 -4 29 -12 -10 -14 -26
right_child=1 2 24 12 7 -7 -8 -9 9 -11 26 20 13 -15 15 23 22 -19 -20 -21 -22 -23 -24 -25 25 -27 -28 -29 -30 -31
leaf_value=-1.4445027201755796 2.981549708603481 -0.62963319618566715 2.1585476906763184 -0.75047395553432839 0.81100454494803409 -2.0259919410812017 1.854889719067045 -4.4301693523675203 1.9022342885602013 -0.4310817378420444 -2.2606489808663079 5.8083187807690022 0.4628922408912331 -0.95655104081196107 -1.3489092035727068 6.4193151742678429 -0.31841543520947074 6.7164814862174609 -1.196219980707065 -0.54348985050382514 1.472785999498643 1.3908392763712951 -3.6563898885459234 3.0096688864452226 -2.1971466928478836 -5.7289234054088602 1.6495456035505853 5.8556045608958982 3.6282025584069917 2.4393575049028167
leaf_weight=2094 179 454 54 2188 1298 271 578 40 146 244 69 165 128 731 176 130 522 199 1082 366 430 114 114 248 185 70 464 87 167 41
leaf_count=2094 179 454 54 2188 1298 271 578 40 146 244 69 165 128 731 176 130 522 199 1082 366 430 114 114 248 185 70 464 87 167 41
internal_value=1.12429e-10 0.602883 0.998162 -0.606409 1.20441 0.182064 0.761892 1.61353 1.6887 2.28269 2.67824 3.39524 -0.207915 0.327789 0.960013 2.42509 0.0882049 4.91607 -0.589754 0.614275 2.46858 4.00333 -0.916732 4.1823 -1.68835 -2.39015 1.14335 3.37839 2.25478 -1.35601
internal_weight=13034 6536 4909 6498 4559 1303 1032 3256 3216 1918 1674 1141 4404 2216 1485 554 931 432 1627 545 709 279 636 378 350 296 533 233 295 226
internal_count=13034 6536 4909 6498 4559 1303 1032 3256 3216 1918 1674 1141 4404 2216 1485 554 931 432 1627 545 709 279 636 378 350 296 533 233 295 226
is_linear=0
shrinkage=0.1


Tree=30
num_leaves=31
num_cat=0
split_feature=1 3 5 0 6 0 0 9 8 0 8 9 0 0 0 9 9 8 11 4 4 0 6 2 8 6 0 1 10 0
split_gain=387111 341202 266822 205007 171183 140295 283447 193879 129985 116228 186901 170301 112990 174765 163783 271446 269565 110643 104141 103417 102993 100404 93592.9 93321.3 92014 99129.4 89130.3 85289.5 82931.1 79968.9
threshold=-0.71874999999999989 0.68333333333333324 -1.0000000180025095e-35 -0.54166666666666663 1.0000000180025095e-35 0.54166666666666685 0.37500000000000006 -1.0000000180025095e-35 -0.62499999999999989 -0.20833333333333329 0.37500000000000006 -1.0000000180025095e-35 -1.0000000180025095e-35 0.62500000000000011 0.37500000000000006 -1.0000000180025095e-35 -1.0000000180025095e-35 0.37500000000000006 2.5000000000000004 0.50033512064343189 1.000670241286864 -0.95833333333333315 0.58333333333333337 1.1842653699201113 -0.62499999999999989 0.25000000000000006 0.54166666666666685 -0.28124999999999994 2.5000000000000004 0.87500000000000011
decision_type=2 2 2 2 2 2 2 2 2 2 2 2 2 2 2 2 2 2 2 2 2 2 2 2 2 2 2 2 2 2
left_child=-1 2 12 21 18 6 9 -8 -7 11 24 -6 -2 14 15 -14 22 -9 23 26 -3 -4 -16 29 25 -11 -18 -12 -29 -5
right_child=1 20 3 4 5 8 7 17 -10 10 27 -13 13 -15 16 -17 19 -19 -20 -21 -22 -23 -24 -25 -26 -27 -28 28 -30 -31
leaf_value=-1.3083882318489684 -0.72019774479349896 -0.85961571286368121 1.7453790229094235 1.1136144819994209 -0.15258443103117103 -3.9451367863586975 1.5013354816590436 9.7369162595839729 1.1904571954460039 -3.18075624534062 0.72542342974589424 5.156261045254019 2.294047447757011 -0.9873102103507585 0.22216826439573523 -0.94542328311655766 5.8706887540421953 3.0202811419963838 -2.3212953541880457 1.4075994267471528 -4.148368528750864 -0.76959382651585662 -5.0774123343025765 -3.793518585818155 -0.40658446961215566 4.5291509042091578 2.154932342915191 2.8030936486445945 7.5095145384470632 -1.5865956182880649
leaf_weight=1927 1773 1665 196 2013 85 56 64 105 411 21 65 209 387 732 178 780 193 32 107 152 101 835 41 42 420 81 97 78 72 116
leaf_count=1927 1773 1665 196 2013 85 56 64 105 411 21 65 209 387 732 178 780 193 32 107 152 101 835 41 42 420 81 97 78 72 116
internal_value=6.25459e-10 0.226998 0.467992 0.965129 1.29089 2.05058 2.61005 6.04533 0.574626 1.94032 1.26971 3.62139 -0.106591 0.31838 0.841228 0.128849 2.09894 8.16807 0.7243 3.52042 -1.0477 -0.291481 -0.769991 0.874405 0.247701 2.94182 4.62783 3.75106 5.06218 0.966492
internal_weight=13034 11107 9341 5008 3977 1699 1232 201 467 1031 737 294 4333 2560 1828 1167 661 137 2278 442 1766 1031 219 2171 522 102 290 215 150 2129
internal_count=13034 11107 9341 5008 3977 1699 1232 201 467 1031 737 294 4333 2560 1828 1167 661 137 2278 442 1766 1031 219 2171 522 102 290 215 150 2129
is_linear=0
shrinkage=0.1


Tree=31
num_leaves=31
num_cat=0
split_feature=1 11 0 6 2 0 0 7 8 0 1 0 9 9 4 5 0 0 3 0 9 2 6 9 7 3 0 9 0 9
split_gain=335157 276026 198980 211392 230334 176704 146647 166107 138035 131783 119325 119323 259291 202101 113606 94306.9 93790.8 106905 93727.5 91053.3 256313 93744.1 89583.7 88209.8 79461.2 78387.1 91370.1 276218 223339 133823
threshold=-0.34374999999999983 1.0000000180025095e-35 -0.54166666666666663 -0.74999999999999989 0.86853073984022255 0.70833333333333337 -1.0000000180025095e-35 1.0000000180025095e-35 -1.0000000180025095e-35 -0.95833333333333315 0.15625000000000008 -0.20833333333333329 -1.0000000180025095e-35 -1.0000000180025095e-35 1.6008713136729231 -1.0000000180025095e-35 0.87500000000000011 -0.37499999999999994 0.91666666666666663 -0.29166666666666657 -1.0000000180025095e-35 -1.0260507120527957 -0.24999999999999997 -1.0000000180025095e-35 1.0000000180025095e-35 -1.0000000180025095e-35 0.29166666666666669 -1.0000000180025095e-35 0.54166666666666685 -1.0000000180025095e-35
decision_type=2 2 2 2 2 2 2 2 2 2 2 2 2 2 2 2 2 2 2 2 2 2 2 2 2 2 2 2 2 2
left_child=16 2 9 -4 5 6 11 15 -7 23 -9 12 24 -13 18 -8 17 -1 -3 20 -19 -22 -17 -2 -5 26 29 -28 -29 -21
right_child=1 14 3 4 -6 8 7 10 -10 -11 -12 13 -14 -15 -16 22 -18 19 -20 25 21 -23 -24 -25 -26 -27 27 28 -30 -31
leaf_value=-1.2170727114975541 4.802190019743783 -0.080254906381595548 -2.2315074622790445 -1.5546497515820583 -0.69204400511857656 -1.5589760111644866 1.7357632261922202 -9.4806599926948554 1.2756663072561916 -0.80403190975785721 1.0807258867699168 2.4597839771873424 2.9811895276006966 -2.2502041499581069 -3.7131980117066825 1.910567526351759 -2.8486799891527537 -2.9149059884059128 -1.7094534951141573 1.1446999413938057 -2.0203649441401166 5.192226033135662 3.8595944090323018 0.52950116160492866 5.0239511930942538 -1.2413256903378747 -1.8250720669411153 4.7708633694510487 0.41795160746888116 -1.7138012494732227
leaf_weight=1726 70 2305 187 224 560 304 947 20 395 1073 23 144 485 248 103 378 197 78 417 246 21 127 627 156 20 718 259 201 285 490
leaf_count=1726 70 2305 187 224 560 304 947 20 395 1073 23 144 485 248 103 378 197 78 417 246 21 127 627 156 20 718 259 201 285 490
internal_value=4.91013e-10 0.358774 0.750144 1.06106 1.2018 1.47979 1.80213 2.31638 0.0428605 -0.341779 -3.83155 0.886952 1.6435 -0.520004 -0.4532 2.45181 -0.716722 -0.615543 -0.329842 -0.187402 1.72399 4.16882 3.12653 1.8529 -1.01542 -0.383844 0.0318701 0.812572 2.21823 -0.758378
internal_weight=13034 8686 5861 4562 4375 3815 3116 1995 699 1299 43 1121 729 392 2825 1952 4348 4151 2722 2425 226 148 1005 226 244 2199 1481 745 486 736
internal_count=13034 8686 5861 4562 4375 3815 3116 1995 699 1299 43 1121 729 392 2825 1952 4348 4151 2722 2425 226 148 1005 226 244 2199 1481 745 486 736
is_linear=0
shrinkage=0.1


Tree=32
num_leaves=31
num_cat=0
split_feature=5 0 11 6 10 8 0 0 1 9 0 2 6 6 3 2 0 0 0 0 8 8 0 2 8 0 3 3 6 8
split_gain=303978 170254 173429 149862 127914 114085 113903 188701 108923 92278.4 146752 90002.6 88200.7 86521.3 108157 126637 103671 85640.9 323700 182829 491260 141901 213754 121282 111198 84839.5 81475.5 80502.8 77853.8 82322.1
threshold=-1.0000000180025095e-35 -0.54166666666666663 1.0000000180025095e-35 -0.41666666666666657 2.5000000000000004 -0.62499999999999989 0.45833333333333343 -0.20833333333333329 0.46874999999999994 -1.0000000180025095e-35 -0.79166666666666663 0.76328586314692615 -0.41666666666666657 0.58333333333333337 0.3166666666666666 1.0263980548801672 -1.0000000180025095e-35 0.37500000000000006 0.45833333333333343 -0.20833333333333329 0.62500000000000011 0.37500000000000006 0.70833333333333337 0.71066342480027822 0.37500000000000006 -0.12499999999999999 -0.21666666666666662 -0.61666666666666636 -0.58333333333333315 0.37500000000000006
decision_type=2 2 2 2 2 2 2 2 2 2 2 2 2 2 2 2 2 2 2 2 2 2 2 2 2 2 2 2 2 2
left_child=3 9 5 -1 8 6 7 -3 12 10 -2 -9 -4 14 15 16 -5 19 -19 24 25 22 -20 -22 -7 -21 -14 -6 -27 -30
right_child=1 2 4 13 27 17 -8 11 -10 -11 -12 -13 26 -15 -16 -17 -18 18 21 20 23 -23 -24 -25 -26 28 -28 -29 29 -31
leaf_value=-1.1807907188607429 2.3546187484445684 -2.6378023416928524 -0.38515506663299043 -0.11876006519087906 -4.708153527691251 3.4598995288989616 -2.2886036790469113 3.3274902068418899 0.97497527398121597 -0.9226309178081844 -0.99888725257748345 -1.7713194469433455 1.7818307972326874 -0.92557950453213 -0.5437115503166734 -2.0636945454863671 1.4863014100248024 6.2010646991162419 4.0575335487403388 -3.3419267852353842 6.0694273302270698 -0.3625323293565727 0.42216940739908698 -0.17756505883657014 0.52504858982683433 -2.1007633765786884 -3.023771924322415 1.6283963842161893 -0.37270391456249485 2.766807025933967
leaf_weight=2094 263 106 522 658 21 371 170 197 314 1105 259 42 40 1091 1457 162 1036 166 326 113 153 305 321 39 198 200 299 443 461 102
leaf_count=2094 263 106 522 658 21 371 170 197 314 1105 259 42 40 1091 1457 162 1036 166 326 113 153 305 321 39 198 200 299 443 461 102
internal_value=1.9113e-09 0.481522 0.775347 -0.484338 -0.0642068 1.19615 -0.169999 0.873951 -0.619356 -0.405012 0.690714 2.43147 -1.2008 -0.15319 0.101164 0.607406 0.862848 1.45153 2.12619 0.990768 0.219386 1.41565 2.2539 4.80051 2.43863 -0.784695 -2.45674 1.34161 -0.40597 0.196088
internal_weight=13034 6536 4909 6498 1639 3270 515 345 1175 1627 522 239 861 4404 3313 1856 1694 2755 1118 1637 1068 952 647 192 569 876 339 464 763 563
internal_count=13034 6536 4909 6498 1639 3270 515 345 1175 1627 522 239 861 4404 3313 1856 1694 2755 1118 1637 1068 952 647 192 569 876 339 464 763 563
is_linear=0
shrinkage=0.1


Tree=33
num_leaves=31
num_cat=0
split_feature=5 2 10 6 0 0 0 9 0 9 1 0 0 2 3 1 11 0 8 2 4 6 8 0 9 2 1 11 10 0
split_gain=246222 144485 194601 187646 122460 146388 204581 121220 116817 167397 101349 102594 157951 101152 104172 121100 97235.8 80616.7 79424.5 69896.3 69496.5 68539.3 68114.5 65606.7 68566.9 55916.7 55645.6 53304.8 52246.6 53871.2
threshold=-1.0000000180025095e-35 0.44755123306703731 2.5000000000000004 0.75000000000000011 0.87500000000000011 0.29166666666666669 0.54166666666666685 -1.0000000180025095e-35 0.37500000000000006 -1.0000000180025095e-35 0.093750000000000056 0.20833333333333334 0.62500000000000011 1.1842653699201113 -0.68333333333333324 1.0312500000000002 2.5000000000000004 0.37500000000000006 0.37500000000000006 -1.078673150399444 1.0000000180025095e-35 -0.58333333333333315 -0.62499999999999989 -0.62499999999999989 -1.0000000180025095e-35 -1.0000000180025095e-35 0.46874999999999994 1.0000000180025095e-35 1.0000000180025095e-35 -0.45833333333333331
decision_type=2 2 2 2 2 2 2 2 2 2 2 2 2 2 2 2 2 2 2 2 2 2 2 2 2 2 2 2 2 2
left_child=4 2 3 16 5 21 8 -8 -7 -10 -4 -12 -13 14 15 17 19 18 22 -2 -11 -1 -3 24 -21 -18 -19 -25 -27 -30
right_child=1 13 10 -5 -6 6 7 -9 9 20 11 12 -14 -15 -16 -17 25 26 -20 23 -22 -23 -24 27 -26 28 -28 -29 29 -31
leaf_value=-1.3924771515894199 -2.3830911899696701 4.8940381379354569 0.72739888467851577 -3.289618450372803 -2.4854877063023149 -0.10401431950990872 -2.1093748624707844 0.18053198307998991 -0.1176223271233396 5.0852488256471107 1.4088006502622135 8.8916059596996231 0.084498964995145809 -3.4358976390050806 0.85208121118916047 -0.34403296725617516 -0.58432210416881591 1.7201284861564639 5.8048456917588531 0.82461371439504849 2.3501232345653054 -0.44806815441404063 0.2947382525257442 0.82839660644013857 -1.310657322301219 -0.763878738393589 6.6421879330459905 -0.31489709068391081 -1.3112040110996792 -6.6995706944032154
leaf_weight=1002 110 42 1236 196 279 279 333 756 178 172 154 56 32 46 1295 108 163 30 52 219 202 3297 138 1368 480 49 98 581 28 55
leaf_count=1002 110 42 1236 196 279 279 333 756 178 172 154 56 32 46 1295 108 163 30 52 219 202 3297 138 1368 480 49 98 581 28 55
internal_value=-1.05066e-09 0.433369 0.142511 -0.290244 -0.435904 -0.343954 0.382027 -0.519687 1.5637 2.40661 1.09381 2.96524 5.68902 1.1934 1.31418 2.59286 -0.097687 3.47393 2.36239 0.086884 3.60799 -0.668189 1.36791 0.189489 -0.641667 -1.82327 5.48858 0.487579 -3.35318 -4.88181
internal_weight=13034 6536 4727 3249 6498 6219 1920 1089 831 552 1478 242 88 1809 1763 468 3053 360 232 2758 374 4299 180 2648 699 295 128 1949 132 83
internal_count=13034 6536 4727 3249 6498 6219 1920 1089 831 552 1478 242 88 1809 1763 468 3053 360 232 2758 374 4299 180 2648 699 295 128 1949 132 83
is_linear=0
shrinkage=0.1


Tree=34
num_leaves=31
num_cat=0
split_feature=2 10 10 6 3 2 6 8 3 7 4 4 1 0 0 0 0 9 9 8 8 0 4 7 2 6 11 2 0 0
split_gain=214235 175892 120213 135116 119878 182131 138993 110279 87395.6 87377.5 93848.6 87195.6 82301.5 78867.4 89061 205247 116735 504564 371924 90102.1 82261.2 74972.7 78730.7 74298.6 66431.7 65752 61600.2 61196.4 58404.9 178276
threshold=0.13181660298714853 2.5000000000000004 1.5000000000000002 0.75000000000000011 -0.18333333333333343 0.8159083014935743 -0.58333333333333315 0.62500000000000011 0.6166666666666667 1.0000000180025095e-35 -0.49999999999999994 0.80060321715817739 1.3437500000000002 -0.45833333333333331 0.54166666666666685 0.37500000000000006 -0.20833333333333329 -1.0000000180025095e-35 -1.0000000180025095e-35 -0.62499999999999989 -0.62499999999999989 -1.0000000180025095e-35 1.6008713136729231 1.0000000180025095e-35 -0.65769364362625893 -0.24999999999999997 2.5000000000000004 -1.078673150399444 0.29166666666666669 0.54166666666666685
decision_type=2 2 2 2 2 2 2 2 2 2 2 2 2 2 2 2 2 2 2 2 2 2 2 2 2 2 2 2 2 2
left_child=2 4 3 27 5 6 -2 28 9 13 -11 -10 23 -4 15 16 18 24 -15 -17 -16 -8 -23 -7 -18 -20 -6 -1 -3 -30
right_child=1 7 8 -5 26 12 21 -9 11 10 -12 -13 -14 14 20 19 17 -19 25 -21 -22 22 -24 -25 -26 -27 -28 -29 29 -31
leaf_value=-1.7791633729722875 -2.0716716948788143 0.83354281862191015 -0.4131182410255454 -2.5421230328586049 0.011001903089869525 -0.55914885939463321 0.49359936511257524 6.3257576710299439 -0.45851102540429745 -6.6207356343398223 -0.29393951569218191 -3.4511257245718876 -6.1925705337524413 -2.5273682440438918 -3.0891373736804795 -1.275509915749232 -0.97048651730572733 -1.7148398399399101 2.1230832856708921 4.5903160786744461 0.18536235147671734 2.3658805727443646 -2.0572179026546933 5.2370491172956388 4.2866759737468749 5.2281679209321741 -1.6030777641500418 -0.38915868517048885 5.9117509742650922 -0.21270577170875635
leaf_weight=363 103 309 885 394 2610 575 357 57 1081 37 64 107 25 126 89 30 27 566 113 206 556 962 42 23 219 172 260 2485 102 89
leaf_count=363 103 309 885 394 2610 575 357 57 1081 37 64 107 25 126 89 30 27 566 113 206 556 962 42 23 219 172 260 2485 102 89
internal_value=1.74466e-10 0.473458 -0.347161 -0.806444 0.284133 0.860821 1.47022 2.15835 0.000898233 0.281153 -2.61168 -0.728048 -0.571224 0.378904 0.71205 1.14464 0.623618 -0.0714538 1.99685 3.84466 -0.266468 1.73827 2.18085 -0.336218 3.70967 3.99703 -0.135221 -0.566326 1.68327 3.05795
internal_weight=13034 5514 7520 3242 4957 2087 1464 557 4278 3090 101 1188 623 2989 2104 1459 1223 812 411 236 645 1361 1004 598 246 285 2870 2848 500 191
internal_count=13034 5514 7520 3242 4957 2087 1464 557 4278 3090 101 1188 623 2989 2104 1459 1223 812 411 236 645 1361 1004 598 246 285 2870 2848 500 191
is_linear=0
shrinkage=0.1


Tree=35
num_leaves=31
num_cat=0
split_feature=5 0 8 0 0 9 6 6 7 8 0 0 0 0 9 9 0 0 3 0 9 2 1 8 4 3 6 1 11 8
split_gain=195100 107043 123838 98895.6 205178 203469 117250 135720 219324 110789 109306 96502.8 109315 228904 128595 93243.3 90663.3 99657.7 90637.9 70500.9 85517 67430.5 73059.4 64991 59855.8 55643.3 68579.2 55606.4 54572.7 60255.4
threshold=-1.0000000180025095e-35 -0.54166666666666663 -0.37499999999999994 -0.20833333333333329 -1.0000000180025095e-35 -1.0000000180025095e-35 -1.0000000180025095e-35 0.58333333333333337 1.0000000180025095e-35 0.62500000000000011 -0.45833333333333331 0.87500000000000011 0.37500000000000006 0.54166666666666685 -1.0000000180025095e-35 -1.0000000180025095e-35 0.62500000000000011 -1.0000000180025095e-35 0.81666666666666665 -0.87499999999999989 -1.0000000180025095e-35 0.65804098645363018 0.65625000000000011 1.0000000180025095e-35 1.2007372654155504 -0.21666666666666662 0.41666666666666669 -0.15625000000000003 2.5000000000000004 0.37500000000000006
decision_type=2 2 2 2 2 2 2 2 2 2 2 2 2 2 2 2 2 2 2 2 2 2 2 2 2 2 2 2 2 2
